,0,1,2,3,4,5,6,7,8,9,10,11,12,13,14,15,16,17,18,19,20,21,22,23,24,25,26,27,28,29,30,31,32,33,34,35,36,37,38,39,40,41,42,43,44,45,46,47,48,49,50,51,52,53,54,55,56,57,58,59,60,61,62,63
ARAF,0.25459266,0.058115408,0.11479571,-0.07748202,-0.06848395,0.51804835,-0.25389132,-0.037289724,0.13918717,0.17523974,0.010257565,0.4637888,-0.51113224,0.36499268,0.047263958,-0.09523402,-0.1014836,-0.09020645,0.36660942,-0.40232348,0.052263394,0.049567346,-0.40687442,-0.6895108,-0.047760386,-0.12741376,0.19095804,0.13900352,-0.14571059,0.18062499,-0.20988435,0.96135175,0.92242366,-0.117574684,0.5439079,0.28575474,0.57916343,-0.58035386,-0.18268858,-1.1285995,-0.05431183,-0.47487575,-0.16399439,0.055121444,0.05199002,0.29584646,0.06859792,0.63528013,0.30286488,0.7595003,-0.05913033,0.001965031,0.37372068,-0.28355792,-0.4471935,1.4744538,0.17223045,0.08117508,0.13361013,0.041540243,0.16842757,-1.0739621,0.38001794,0.12044943
ARAF_S214C,-0.27164066,-0.41741344,0.16239251,-0.2293463,-0.08015641,-0.18204468,-0.18072964,0.42237425,0.23971015,-0.24143136,-0.5685232,0.33000126,-0.30079648,0.030453501,-0.22272591,-0.13043752,-0.16913223,-0.14971791,-0.081059076,-0.51502526,-0.67459667,0.012366013,1.6257293,-0.14671497,-0.45535144,-0.36416155,0.2837207,0.012319584,-0.019983357,-0.09804691,0.362866,0.19937383,-0.03302681,-0.012435124,-0.3997948,-0.19939582,0.18228756,0.16653645,-0.23274192,0.033864513,-0.035592012,-0.516727,0.20043252,0.9579875,0.094804734,-0.15566668,0.20109928,-0.20056416,-0.33224487,0.80479413,-0.10060161,-0.018660001,-0.16391714,0.13685645,0.31770417,0.28478944,0.10923315,0.38026047,-0.10203338,0.3652259,-0.062067684,-0.04784431,0.18144557,0.08428278
Sorafenib,-0.13032594,-0.26900414,0.6186164,-0.85991216,-1.3076179,-0.11642942,-0.43395352,-0.09062787,-0.09818379,0.010220712,0.12680285,-0.062946945,-0.18412048,-0.11460308,0.12969874,0.24722955,0.47910404,-0.95871145,-0.08045696,-0.28747955,0.049156457,-0.16201693,-0.3539925,-0.009683335,-0.01252685,0.006432622,0.1202795,-1.0266122,-0.8650529,-0.28356066,0.033053387,0.35188615,-0.04171854,-0.38476786,-0.81698775,0.11594059,-0.06710205,-0.22419016,-0.034111537,-0.30898225,-0.062480453,0.4801936,0.17908932,-0.015116276,-0.5179678,-1.0378317,-0.008178602,0.37055504,-0.8689252,-0.62353307,0.08112047,1.6123507,-0.058352925,0.29773897,0.45734927,0.3298797,0.3455886,-0.009293382,0.042365517,0.17354704,-0.118677825,-0.48889565,0.20798445,-0.14931287
Lung Non-Small Cell Carcinoma,-0.046742022,0.4194621,-0.34718555,2.0345538,-0.33261752,0.5009409,-1.0034074,1.1228029,0.8868453,-0.3567206,1.0681733,0.54303867,-0.76011586,0.6026426,-0.51901245,-0.72015136,0.66925246,0.35514373,0.102256745,-1.3272225,0.526064,-1.1837521,1.7491319,-0.9731432,-2.4741645,-0.40938568,-1.1077181,-0.16283718,-0.026080333,0.11017966,-0.63191736,0.12539077,-1.5608346,0.06153402,0.50723755,0.42212573,-0.8150405,-1.2719343,-0.8010777,0.9300825,0.04529032,2.0460498,-0.59597796,0.11617963,0.6808291,0.42885846,0.4637512,-1.1446967,0.9483574,-1.4769752,-1.5617942,1.219972,0.4681556,1.3611081,1.1118652,1.0058737,0.7286334,-0.37909526,0.8148292,0.7139544,0.33966228,-1.845855,-0.11550316,-0.35588813
ALK,-0.12713249,-0.45830786,-0.31347466,-0.5675347,0.11354469,-0.06302213,-0.5639423,0.32897538,0.2541995,-0.44640177,0.604238,-0.11374615,-0.018288482,-0.29224887,0.7335022,-0.3479154,-0.18170023,0.35523334,-0.18804985,0.5266114,-1.0888871,-0.30383205,-1.4382763,-0.33183214,-0.17066686,-0.4574425,0.4303532,-0.056330506,-0.4421275,0.34196782,-0.44678733,-0.23017877,-1.0025195,-0.13565269,0.35890406,-0.1964966,0.2780984,-0.31433645,-0.3363018,-0.5859691,-0.90570605,-1.349232,-0.13626333,0.13990536,0.17874736,-0.6810178,0.60470647,-0.2833378,0.4348935,0.40703535,-0.8870531,0.86563396,-0.0065341457,0.12589583,-0.1477271,-1.1381911,0.29162717,-0.48684326,0.08228007,-0.19981349,0.3184338,-1.212226,-0.15725856,0.15816689
ALK_F1174L,-0.5043085,-0.076103546,-0.1508191,0.50781673,-0.037044372,0.3494176,1.7602051,0.1649161,-0.28404385,0.008040493,0.58175856,-0.22459282,-0.6073225,-0.22182742,1.1831734,-0.33398828,-0.7144259,-0.42902896,-0.43446082,-0.22335494,-0.8044478,-0.43344462,0.52977926,0.2924551,0.25410962,0.75334597,0.4939079,0.61141795,-0.3499695,-0.097493105,0.25756547,-0.77053845,0.19855721,0.2732335,0.1701647,-0.19211291,-0.81159425,0.18086849,0.9200077,0.47856998,-0.20711198,0.7860421,-0.25058565,0.6949302,0.5728835,0.23014852,-0.18485594,0.06352449,-0.12825933,-0.43466246,0.015435894,1.5818492,0.44587418,0.56825525,-0.84867966,-0.23912053,-0.70691013,0.042783126,-0.20691842,-0.9490232,-0.85669786,-0.122113205,0.038481556,-0.08917598
Crizotinib,-1.0811079,0.16049635,0.62126607,1.1880584,-0.21889357,-0.78274614,0.44194996,-0.0036851359,-0.871025,-0.7290892,-0.22483034,0.13569723,0.4712029,0.14656073,0.26548353,1.4489889,-0.8894045,-0.6838488,-0.48558027,-0.84745973,1.281607,-0.7677156,-0.323194,-0.15309511,1.1714455,0.07154436,0.37048268,-0.15198709,-0.025165837,0.84753823,-0.026199007,0.3529869,-0.1641778,-0.4293329,1.3861076,0.017587136,-1.5309393,0.7742215,0.011823266,1.0603844,0.026401296,-0.4929328,0.15235771,-0.09861352,-0.17407162,0.3439853,0.9092637,-0.09485092,0.7881214,0.63010514,-2.3434298,-0.6655066,0.43592954,-0.2247532,0.40125462,0.32223505,-0.6060644,-0.99423,-0.91274774,0.9525005,0.38968688,-1.2711031,0.03163515,1.7562947
KRAS,0.10831715,-0.09243269,-0.31920734,0.16235021,0.28199092,0.115535825,0.14884143,0.31579456,0.4066143,0.13425936,-0.33606738,0.008341439,-0.14293328,-0.22299553,-0.60377216,0.098486155,-0.39858347,0.095103994,-0.11676992,-0.12918365,-0.47273332,-0.24206504,-0.6352158,-0.1817766,-0.06310002,-0.028542064,-0.06979433,-0.07853257,0.13064013,0.28958696,0.049954172,1.0857,-0.23718105,0.0017931534,0.10306382,-0.023548633,0.28550842,-0.08092314,-0.04201857,1.5670934,-0.10212992,0.21359155,0.083853334,0.37961358,-0.10762056,-0.3978129,-0.01671388,0.21099478,-0.67774385,-0.1444852,0.20824586,0.5979652,-0.24263886,-0.37505358,0.1277138,-0.031387232,-0.29632443,-0.25860897,0.100115515,0.17551629,0.090197995,0.07716317,0.5027405,-0.06598184
KRAS_G12/G13,-0.039630793,0.2781471,-0.03048045,-0.038022507,0.065987915,0.123760626,-0.20873721,-0.08154461,-0.4090263,-0.10525471,0.057425503,0.21171975,0.12975435,0.71795756,0.07746163,-0.09821056,0.016242664,0.13266052,-0.15720078,-0.48318687,-0.13583098,-0.13791253,-0.08361115,0.009850758,-0.3042601,0.07359696,0.10054772,0.273963,-0.3566161,-0.0308199,-0.10935425,-0.09264124,-0.024542237,0.5829633,0.082543716,-0.06351809,0.7748814,-0.013872348,-0.032988943,0.040324412,-0.08390383,-0.64826745,-0.08189823,-0.35408562,-0.028109755,0.019404966,0.063436575,-0.05340699,-0.11655998,-0.27591786,-0.08091356,0.41048405,-0.104614496,0.1946553,-0.17377864,0.046486832,0.17171167,-0.017022943,0.027447904,0.07952277,-0.107178174,-0.06949704,0.5966042,-0.1995308
Erlotinib,0.48661795,0.6363667,0.2979242,0.13707536,0.031959128,0.45530295,0.07888904,-0.5813602,1.0135235,-0.08860229,0.2942423,1.497402,-0.1513468,-0.28662702,-0.03596558,0.44980314,0.033390563,0.26379606,-0.23997472,-0.47607931,-0.09207929,-0.013142587,0.22956222,0.5943244,0.062423818,0.4505969,0.14073886,0.23120928,-0.3828421,0.054397617,0.5215064,-0.03258243,0.3204148,-0.14148721,0.61336994,1.0947262,-0.95229226,0.02011246,0.23125248,0.028131885,0.89262825,0.0546016,0.18364559,0.886274,0.6986073,0.7062085,0.27707246,1.3598335,-0.9533566,-0.7823591,-0.26319516,0.5259853,0.5965519,0.7582064,-0.33205086,-0.06360876,0.3395259,-0.5588314,0.08718183,0.29649505,-0.6997987,-0.16774273,0.42284063,-0.38693237
Gefitinib,-0.31412658,0.037320435,0.30470878,1.3105146,-0.5116678,0.040940296,0.07050949,-0.05308255,0.08912036,-0.21335936,-0.28495374,-0.6291048,0.5144377,1.263046,-0.11648564,0.114217065,0.75102973,0.24051768,0.557695,-0.15097436,-0.26877046,0.66864246,0.6505578,0.14205697,1.1405418,-1.4335617,0.28801677,-0.22161856,0.012639844,-0.18007591,0.35267267,-0.19628865,-0.47995928,0.94072425,0.4670375,-0.13356557,-0.6183617,-0.15254992,0.9200991,0.8143028,0.26708385,0.26379117,0.4261898,-0.65482,0.33991328,0.32654688,0.3161209,-0.18179746,0.39674744,-0.23908488,0.06656123,0.350083,-1.1357938,0.0020433892,-0.14365357,0.8586807,-0.940382,0.41159713,0.686713,0.26189232,-0.47148788,-0.21998058,-0.48815274,-0.91532415
Trametinib,-0.03155831,-0.4741622,1.0340488,0.1784395,-0.42583725,0.06745125,-0.26419982,0.00020092196,0.7864078,1.7177873,0.3871787,0.6949824,0.1482618,0.0034361803,0.74745893,-0.7555657,-0.5284859,-0.21140353,-0.43375558,-1.1327195,0.05969109,0.47274765,-0.9189571,-0.33272097,0.59634006,-1.4223504,-0.30007377,0.5917107,0.40811,0.2468852,-0.22186375,0.2745536,-0.60210615,0.15352397,-0.3252066,-0.05136566,-1.1553146,0.09825287,-1.582259,-0.1327541,-0.51206243,-0.24073629,0.07569241,0.14722113,0.20658934,0.86772543,0.23652515,0.32857877,0.814272,-0.0020907244,0.3109701,-0.08529925,0.60382444,-0.0942583,-0.2105382,0.39725435,-1.2477682,-0.045338217,-0.36327675,-0.074187554,1.2648274,-0.64385194,0.8828413,0.124290586
KRAS_G12D,0.04570801,0.5864987,-0.026188567,-1.0387958,0.567396,1.5574797,0.20246886,-0.08958941,0.20915894,0.18145397,-0.08856067,-1.1825088,0.1158107,0.2130182,-1.6891048,-0.47778547,0.8007519,0.020200463,0.07000043,-0.11822456,-0.46539202,-0.19870405,0.08647438,-0.13386971,0.020582112,0.60892504,-0.36823368,-0.09002588,-0.26659995,0.020789452,0.10076373,0.4264066,-0.29859534,0.32983977,-0.4684697,-0.11904489,-0.05674343,0.44110954,-0.040379964,-0.3272337,-0.1605125,-0.78629905,0.7791185,-0.027246643,1.0497017,0.5705312,0.1137051,-0.08743981,0.29386872,-0.02229906,-0.22089513,-0.5999267,-0.04422629,0.7204888,-0.129403,-0.15548202,0.08347804,-0.6807717,0.24380688,0.31940264,0.11053131,-0.21785864,-0.047619786,0.12020622
Dabrafenib,0.37851375,0.5128241,0.114277214,-0.5501565,0.27339026,0.38078153,1.0837132,0.382645,-0.716317,0.67917985,2.0911393,-0.7113466,0.43531862,0.22802411,-0.37008265,0.77764773,-1.6028168,-0.5358358,-0.09569375,-0.5873827,0.7215651,-1.4369749,0.40938988,-0.13416022,3.304992,-0.17566827,-1.4368714,-0.56322145,-0.18688712,-0.24163786,-0.5440193,-0.043489307,-1.0271757,0.30708325,0.2113902,-0.47197282,-0.25399226,0.40773344,-0.008043415,0.8517533,0.22826032,-0.5219181,0.5427634,0.43109936,-0.3010408,-0.4949852,-0.3242738,0.14799738,0.8203385,-0.21736804,0.8355596,2.380746,-0.06830357,0.057558406,1.4996065,-0.08854561,0.17246304,-1.0813677,1.0345979,-1.2256502,-0.3919724,-1.1606536,-0.27730677,-0.029261969
EML4::ALK,-0.22537713,-0.42034477,-0.94583714,0.12159747,0.017473789,-0.16511765,-0.08267164,-0.090075,0.08329652,-0.32405934,-0.25871357,1.0818833,0.1636574,-0.23113124,0.8997949,0.14851932,-0.70425457,0.042838037,-0.08319172,0.20492852,0.24068409,0.13215609,-0.1866843,-0.59088033,-0.2531826,0.62755585,0.58729845,0.0962209,-0.46365386,-0.019487517,1.2760466,-0.020099198,-0.39207464,0.2279804,0.533145,0.14813532,0.6939576,-0.026833013,0.16243824,0.8280105,0.61027837,1.1997952,0.31647038,-2.3989809,0.17045252,0.1801949,-0.09203261,0.18363793,-0.8432139,-0.09855168,0.005482191,0.14754942,-0.04179307,0.28073278,0.28180522,0.7701045,0.10848041,-0.1653013,-0.13692714,0.28759298,0.2795844,0.9385406,-0.14830972,-0.0142390095
EML4::ALK_Fusion AND ALK L1196M,0.43382904,0.52032363,-0.63363034,0.6075007,0.24268319,-0.013786891,0.9150091,-0.28291684,-0.73940325,-0.82837695,0.3132276,-0.18113735,0.33796737,-0.09155134,0.11094027,0.77466905,0.18420678,0.46304628,-0.035003103,-0.16769372,-0.43305004,0.270964,0.103587575,-0.10881136,-0.16631933,0.11882076,2.23148,0.06735441,0.06796879,-0.87600476,0.4046475,0.22171205,-0.5918229,0.7910874,-0.83111143,0.4565426,-0.47185278,-0.03964502,-0.7171362,-0.3071329,0.40461215,-0.084047444,-0.35702175,-0.012310027,-0.12923862,-0.016945109,0.8788335,0.4723715,0.018668815,0.11288643,-0.49893808,-0.31246972,2.0385022,0.35487923,0.26638144,-0.32726064,-0.023778975,-0.2627328,0.2887084,0.25747323,2.0434158,0.1501354,-0.2937473,-0.8087554
Alectinib,-0.09541799,-0.16001494,0.04910485,0.1407502,0.16150074,-0.20268212,0.0730642,-0.6061018,0.30543265,0.07042326,-0.034480657,-0.13827245,-0.37641257,0.08761494,-0.49705163,0.055906523,0.41173697,-0.07252367,-0.036434732,0.5258471,0.18859604,0.025323603,-0.08501902,-0.3178384,-0.57368463,0.48332474,0.083963506,0.6615027,0.32098097,0.18794154,0.05177171,-0.2840212,0.34995803,-0.3660244,-0.45658806,-0.17829295,-0.27082494,0.009069923,-0.5843251,0.07212971,0.26755747,1.0584034,0.049872357,-0.17652532,-0.66939265,1.3256499,0.13186094,0.3786657,1.3653632,-0.4030175,0.13955252,0.8287521,0.20480758,-1.148613,-0.092128895,0.19307286,0.040158685,0.07393924,0.43323913,0.28144524,-0.059876833,0.5697205,-0.49951607,0.31379446
TSC1,-0.31503618,0.7090711,0.7087181,0.19148768,-1.2326224,-0.118864216,0.57945406,0.24827108,-0.29353654,-0.028168429,-1.4763377,0.06928678,-0.26452217,-0.053622358,-0.001213412,0.0054963436,0.31854194,-0.15282424,-0.22020347,-0.685566,0.027589004,-1.0655812,1.2131097,0.072097145,0.51861036,-0.057925824,-0.9186369,0.08591602,0.7829092,0.31013358,0.71737427,0.889629,0.1504861,0.34106016,-0.3304686,-0.39760223,0.6287392,0.37781674,-0.7892031,-0.2431312,-0.1441547,-0.52609557,0.85414064,1.0266366,-0.02318625,0.083044134,-0.7511088,-0.43479776,0.4392167,-0.052130744,0.39170772,0.44995967,-0.1372735,-0.24860597,0.39438197,-0.40019834,0.24733295,0.38717356,-0.00019136828,1.0256982,0.30362388,-0.1196696,-0.1293601,0.01857778
TSC1_Frameshift Truncation,-0.118493736,-0.06717535,-0.035029832,0.09733874,1.0765142,-0.10288702,1.6453787,1.0281451,0.42591655,0.51008505,0.08840778,-0.0022512248,-0.085466355,-0.045615602,0.0057501714,0.4522504,0.69235957,0.13475369,-0.08280654,0.10120806,0.6202452,0.44711888,-0.57473797,0.07902316,-1.0489562,0.31940183,0.26607254,0.74631363,0.1936601,0.17867942,-0.044442877,0.0046367515,-0.05931677,0.44742545,-0.12061531,-0.1414513,-0.8000776,1.1419377,-0.5535936,-0.1526557,0.048774187,0.08361203,0.18824312,0.07246114,-0.017376347,0.3051245,0.17811841,-0.4792419,0.73999625,-0.30502024,0.3015448,0.2699483,-0.10008248,-0.23558697,-0.32280737,0.604289,0.16876134,0.075601585,0.17224136,0.82193184,-0.5585867,0.18039617,-0.3499847,0.6274703
Sirolimus,0.4286036,0.115399785,0.15297687,0.46133527,0.6600006,0.23668024,0.12006617,-1.5340284,-0.13645898,0.15299602,0.09746281,1.7842776,-0.3217784,-0.009826284,0.19315025,0.31267324,0.19398923,-0.49033412,0.03797233,-0.52486974,0.20357758,0.5034508,-1.2538197,-0.21531594,0.27980238,0.37465388,-0.060186796,-0.73716307,1.0093218,0.059013627,0.027418207,0.83832,-0.019903718,0.66213584,-0.40882576,-0.35817525,0.08381219,0.23270093,-0.17856011,0.2770464,0.14330703,0.6832137,-0.23316956,0.1733462,-0.42595896,0.45689,0.17666495,0.15647481,-0.05011795,-0.1682096,0.85771585,1.5533435,-0.47596785,0.32593706,0.31805417,0.2562068,0.45989037,0.054740846,-0.21219099,-0.17662062,0.29473698,-1.280854,0.10448426,-0.20747687
EGFR,0.019599566,0.22054048,-0.020513613,0.189584,-0.42754507,-0.54342294,0.10443224,-0.14281537,0.50032026,-1.0948844,-0.20151846,0.20979843,0.18883242,-0.23410983,-0.18749648,-0.041541636,0.6506902,0.048683796,-0.17279476,0.2184494,0.32929537,0.014320916,-0.20182133,-0.2687519,-0.3413724,0.13904352,0.07386459,-0.07895009,0.14088486,-0.1367214,0.18634996,-0.0389132,-0.154302,0.78653073,-0.2034697,0.009097915,0.032080203,-0.029326174,0.11626017,0.2563577,-0.2867411,-0.66609794,-0.30010048,0.26782787,0.053078692,0.0055059353,0.14632349,-0.1608204,0.091513515,0.008914304,0.07235881,-0.20616952,-0.16722277,0.18152995,-0.22883901,0.072074816,-0.04354103,-0.7628259,-0.014973845,0.41578233,-0.048460603,0.24044433,-0.07347147,-0.18956253
EGFR_L858R,-0.05226507,-0.15466033,-0.23474398,0.0634447,-1.3481637,0.10993594,0.2961848,-0.043451656,0.118038714,0.0641612,0.4950858,0.113536984,-0.20874996,-0.1957215,-0.24713805,-0.0076496946,0.3645619,0.69639105,-0.12356953,0.02316554,-0.6510225,0.38957295,-0.19451584,-0.6039045,-0.1978572,-0.0020655151,0.3073527,-0.12546283,-0.29331908,-0.46424618,-0.3775009,-0.16530697,0.1988027,0.31685954,0.40631178,-0.256268,0.47127098,0.115079716,-0.10082416,-0.27088103,-0.07325362,-0.1543567,0.011775698,0.1878881,-0.068637356,0.0011394282,-0.36921236,-0.04536553,0.29813752,-0.26346672,-0.24698375,0.067604646,-0.3099931,0.35638785,0.18929224,-0.7397161,-0.35267937,0.10003932,-0.08193689,1.253671,-0.09314152,-0.007815378,-0.038321503,-0.11007314
EML4::ALK_Fusion AND ALK C1156Y,0.5120813,0.53677374,-0.17992023,0.28570098,-0.6383867,-0.028053781,-0.1056022,1.1562644,0.17017497,0.15965612,0.12165759,0.6443382,0.15017451,-0.107275166,-0.33520174,0.42364845,-0.23478466,0.42044887,0.022359835,-0.010702125,-0.3443668,0.14086494,-0.11127295,2.3332076,0.25382677,-0.104458205,0.45402688,-1.2149726,-0.095687814,-0.30194038,0.17651007,0.41134408,0.16121899,-0.04711651,-0.2543142,-1.0560945,0.10741433,-0.03542501,-0.79081213,0.8296265,-0.06258488,1.2599937,0.12928979,0.19709764,-0.20427905,0.8818437,-0.102710016,0.024411736,-0.67256784,0.19060713,0.06375279,0.0036033285,-0.26316845,-0.9288357,0.4859994,-0.26794773,0.21223639,0.5890419,0.0034581814,0.4943645,0.19037439,-0.60619473,0.60105485,0.18891503
Lung Adenocarcinoma,-0.7363589,1.6677636,0.23383482,0.13919699,-0.25757813,0.56812024,0.39998728,-0.21444118,0.64488345,0.5161783,-0.8710752,0.3444345,1.6149834,-1.6205368,0.18496051,0.7017576,0.42769536,0.31476757,0.13461412,-0.6630037,-0.7236023,0.70762616,-0.7848857,0.5570822,-0.7603995,-0.46779943,-0.51087356,-0.35192046,0.08673998,-0.048194505,-0.47458354,0.93570733,-0.57890636,-0.9869886,0.97284836,0.14595124,-1.2117879,-0.1998296,1.7734722,0.5798335,0.028780663,0.35093662,-0.31558844,0.6622033,0.12380846,-0.348161,0.43915915,-0.19756149,0.40022722,0.64983207,-0.64640296,0.58019245,0.38319653,0.124887325,0.7912855,-0.056625817,-1.0034151,-0.03541537,0.41177532,0.56341827,-0.09812524,0.922993,-0.21742818,-0.5745503
EGFR_T790M,-0.6560215,0.06121711,-0.22540686,0.42505422,-0.01127333,-0.47551546,-0.22969978,-0.03915849,0.39966488,-0.00866907,0.48394078,-0.71865165,0.05192978,0.008421721,0.41996148,0.12211567,-0.25202256,0.27280527,-0.047202326,0.20244887,0.23035517,-0.3037803,0.47560814,-0.5722207,0.55103314,0.05494773,-0.15222655,-0.98059344,-0.16077858,-0.058635432,-1.5922686,0.09134445,-0.79229736,-0.16691084,-0.7465806,0.09559291,-0.18493664,1.5106609,0.113564864,-0.49890772,0.71734273,0.048401244,0.023199374,0.46357098,0.110197484,0.14528045,-0.001061202,0.33440548,0.25676873,-0.0017597475,0.37898514,0.20744592,0.120285556,-0.28062263,0.44154736,0.32794896,0.23859449,-0.05772876,0.6524244,-0.110572845,-0.11176218,0.63668245,0.07999197,-0.19109283
Dacomitinib,-0.68260115,0.61096084,-1.46109,0.36933798,1.8481053,-0.6986431,-0.48196515,0.15509892,-0.16957757,0.3780268,0.3394604,-0.531033,1.0693647,0.745205,0.149721,0.014518484,-0.32151082,0.12887299,-0.23576882,-0.691255,0.46772993,0.30017453,0.037973817,0.6584306,-0.35783896,0.20911139,1.3275678,0.46104747,0.84787065,-0.23273894,0.26430932,0.04160547,0.37345514,0.16154279,-1.0567654,1.840898,-0.34801683,-0.38313034,-0.2757107,0.08033941,-0.54525095,0.031344008,0.16002017,0.21988621,0.2392241,-0.3272585,-0.36705005,0.0124756005,0.8873096,-0.12012126,0.05474376,-0.10434898,-0.2933452,0.0585656,0.07992332,-0.58014166,-0.21787433,-0.08637238,0.7207645,1.0604652,-0.5417061,-0.7143496,0.2127837,0.12661912
KRAS_G12A,-0.16332294,0.32614246,0.40805474,-0.021106973,-0.074944384,0.3759756,-0.02085282,-0.12147357,-0.37307242,0.052477095,0.343887,-0.23406449,-0.033130746,0.105202086,0.048739135,-0.21306452,0.55963355,0.80108875,-1.038925,-0.33649644,0.2347267,-0.09080082,-0.6061257,1.2509656,0.8256779,-0.20403442,-0.17473665,-0.9361144,-0.019037161,0.11809245,0.6392913,-0.36899847,-0.30738926,0.17630625,-0.10266001,0.15199262,-1.2206492,-0.31796277,-0.053091977,0.11041318,-0.34488824,-0.10951569,-0.2799847,0.30594194,0.35064793,0.65368146,-0.06968265,-0.047635175,0.060742952,-1.2127731,-0.5341347,-0.08031756,0.14740717,0.15463047,-1.0058192,-0.23265007,0.32931128,-0.35155568,-0.06647685,0.11028583,-0.5799388,0.2175839,1.9268055,0.031039292
EML4::ALK_Fusion,-0.40728158,0.22922221,0.061353486,-0.75945455,0.22096194,0.7652159,-0.06079802,-1.4336882,0.5339012,-0.44036636,1.7185206,0.5622285,-0.09065874,0.53576267,0.11383565,0.65459996,1.3660892,-0.13604034,-0.016189551,-0.3395414,-0.021983707,1.8487374,0.5509413,0.28689367,-0.05019668,0.05867615,0.044980813,0.3403853,-1.1958183,0.1959138,0.030438261,0.6598937,0.44323912,-1.2923696,-0.49061978,0.1491493,0.90473735,0.6295204,-0.75693685,0.7289908,-0.15616967,1.82793,0.43394154,-0.12264103,0.66565466,-0.76264614,0.29889956,-0.24256356,0.6851898,1.6444685,0.802692,0.42429698,0.17693965,0.11701959,0.35251567,0.18512419,-1.2436231,0.41804275,0.937944,-1.3296115,-0.19586161,-0.63317996,-0.109744765,0.83373016
DDR2,-0.030622538,-0.23436092,1.0176055,0.1465761,0.055757977,0.6433637,1.2563622,-0.4748602,-0.58865565,-0.20804502,-0.025094002,0.5281116,-0.04247932,0.184948,0.15760347,-0.68954974,0.5623519,-0.22341627,1.05331,0.32736918,-0.19179887,-0.41755882,-0.21305256,0.8686183,-0.6588168,-0.34952897,-0.18088926,0.29276454,0.09318688,-0.018821202,-0.74009085,0.004819737,-0.5102946,-0.100950785,0.9134159,0.20590347,0.13231936,0.13069211,-0.38032386,0.7193334,0.014480304,-0.08197477,-0.8693521,0.1766688,-0.01156528,0.14250842,-0.18696135,0.12145446,-0.3740719,0.39319122,0.27622232,-0.32261065,0.038932126,-0.014761315,0.29152972,-0.16692568,-0.07987751,0.053242058,0.23780504,-0.010119048,-0.14576507,0.12908979,-0.37337276,-0.16369976
DDR2_G505S,0.30002835,0.047246017,0.16068844,0.08911099,0.678207,-0.043718062,0.31060356,0.36610535,0.83743864,0.10817804,0.12368211,-0.16510291,-0.65573454,0.49117193,0.2939583,-0.047121488,-0.24337184,-0.9138591,0.3008789,0.67557865,0.62755394,0.2670775,0.55751824,-0.35225585,0.1768257,-0.50259846,-0.2644306,0.028775815,-0.07531119,0.13827863,0.12024589,1.0697902,0.6312752,-0.12515637,-0.01833941,0.27621156,-0.37487918,0.31817648,-0.51210785,-0.5557706,0.5605903,-0.51187855,0.6021271,-0.32227015,0.44397405,-0.20688862,-0.55843335,-0.4271642,-0.23456225,-0.3696483,1.034724,0.10757924,-0.32391754,0.712791,0.32940185,-0.29220474,-0.067816734,-0.43008137,0.35523245,1.0641295,1.1114347,-0.12308914,0.23099418,-0.09877892
Dasatinib,-0.50382674,0.84904623,-0.77882165,0.4845511,-0.021140182,0.21633475,0.18868895,1.1662009,-1.320469,-0.49915707,-0.39696154,0.41660687,-0.6142878,-0.29456127,0.2946873,0.3797173,0.09229358,-0.4987638,0.47932625,0.20678575,-1.6458658,0.5776795,0.08765275,-0.9919153,0.40159813,0.06469818,0.930675,0.36046904,2.2711587,-0.34129608,-0.77393085,-0.9996076,-0.4899585,0.029895432,-0.16648707,0.6855388,-0.18382984,-0.42540386,-0.31099457,-0.460809,-0.032843787,0.78699124,-0.26082683,-0.65186685,-0.9295358,-0.03175251,0.78881824,-0.5922151,0.3862773,-0.00067219825,2.1869893,1.0187416,1.7144924,-0.121017784,0.55282116,-0.22730595,0.4269646,-1.3230654,1.9569931,0.8044697,-0.48749524,0.49112916,0.5958882,-0.033915605
DDR2_G774V,0.11505112,-0.68491477,0.013055697,-0.26694265,0.0719997,1.5081049,-1.3353733,0.072286576,0.0119032245,0.5915296,-0.35429177,-0.04971449,0.3253025,-0.072162606,0.1298704,-0.8593428,0.2488022,-0.35931146,-0.3435623,0.76050395,-0.32717505,0.13948318,-0.28344673,-0.29863515,0.15254617,-0.0628607,0.043457255,-0.84296227,0.49963936,-1.53694,0.044557158,-0.42734724,0.00520977,-0.32536203,-0.061677776,2.0869634,0.01916254,-0.52196515,-0.90841657,0.31938273,0.60793334,-0.6547707,-0.36009377,0.22966053,-0.3274343,0.12526666,-0.056221545,0.22921929,-0.3574777,-0.49293494,-0.37797362,0.15398364,-0.33239907,-0.24235758,0.8037418,0.57932675,-0.166141,0.19228624,-0.004077341,-0.062182177,0.5493352,0.019997923,-0.27977994,-0.18532962
DDR2_I638F,-0.41817608,0.7893308,0.27073735,0.661336,0.08424514,0.08121509,0.25103444,-0.19996047,0.6648193,0.26051116,0.83182585,-0.07555371,0.119729765,0.032380536,0.58486414,-0.6200779,-0.7406614,-0.40828618,0.3413959,-0.6536983,-0.4558812,0.5588695,-0.44689488,-0.11316699,-0.22729366,0.29735994,0.10304134,0.040949013,-0.7784172,0.6440735,0.051186357,-0.0101428395,0.0039757635,0.120324835,-0.32470265,0.382076,1.3921844,1.1430217,-0.32961255,0.6959184,-0.122936614,0.012595977,1.3716803,-1.2812078,-0.6818193,0.0704888,0.91325086,-0.4361906,-0.27113366,-0.6799693,0.2814161,-0.45448333,-0.1321266,0.34297174,0.60335386,0.36461487,0.4412049,0.31870094,0.006872453,-0.31073225,0.121419355,-0.18997349,0.20478103,0.109146565
DDR2_L239R,0.2629797,-0.51519084,-0.3200681,0.30911785,-0.110179,-0.038958192,0.20577607,-0.15868491,0.11398116,-0.46508127,0.13245668,-0.81748533,0.029582668,0.02618662,0.51094425,0.07313458,-0.21064037,0.3417037,-0.10185542,-0.13003276,-0.09739964,-0.03185438,0.016650382,-0.8605124,-0.25551754,0.095569625,-0.025789697,-0.1782409,-0.64877284,-0.27160537,-0.8456834,0.15884073,-0.10508207,-0.06588777,-0.34032872,0.07876523,0.2042564,0.050835304,-0.22815229,-0.06522279,0.25785443,0.7698039,0.08165274,1.3363274,-0.26941022,0.20213994,0.028873302,-0.05479116,0.72774005,-0.7723068,0.0405975,-0.64418286,0.7548251,1.0500907,1.0098583,-0.07168647,-0.059258424,-0.6689953,-0.24113846,0.06386085,-0.16580512,0.89898646,0.65269357,0.13772677
DDR2_L63V,-0.14095104,-0.104424424,0.093648285,-1.737801,-0.41508585,1.1504513,0.33677578,0.4990614,0.16333838,-0.13879593,1.1189077,1.0666614,-0.31113014,-0.10515126,-0.082621805,0.25741288,-0.6704012,-0.13925304,0.5720206,0.25756082,-0.18616915,-0.0073384205,0.80051446,0.24748287,0.00014375099,0.1473541,0.20003757,0.13607843,0.31982118,0.30057862,0.9791858,1.1627749,-0.6165194,-0.011174955,0.11783988,0.262105,-0.27347764,0.15487236,0.36269817,0.0017117412,0.1768513,0.3000605,0.06093871,-0.0032612267,0.25313666,-0.09000932,0.1244832,0.004888312,0.28206438,0.28530696,0.5039758,0.24019206,0.08676356,-0.53541446,-0.08941744,0.2970555,0.3554851,0.3575549,0.11720097,0.113121755,0.04218055,-0.57916445,-1.1488616,0.084130436
DDR2_S768R,-0.107412934,-0.6803532,-0.80026007,-0.57308376,-0.42425713,-0.5647484,0.5981707,0.1938795,0.3965407,-0.24877498,-0.66981715,0.060595762,1.0692801,0.09280501,0.30860475,0.0827148,0.112962574,-0.08396617,0.12979001,-0.0017774764,-0.49772325,0.4292996,0.3331402,-0.49689367,0.5309174,0.6286789,-2.7597792,0.91126674,0.21589863,-1.6131433,0.28137234,0.2958781,-0.3562922,1.0061238,0.37991455,-0.012167429,-0.8435979,-0.13494612,-0.61820465,-0.30226523,0.37598848,0.1295874,-0.39044002,-0.030602042,0.10323134,-0.10023709,-0.42488116,0.4734762,0.16089483,0.21690385,-0.17171066,0.19287398,-0.09835594,0.50075305,0.045668345,0.1292248,0.5531966,0.26038387,-0.0709425,0.14709133,-0.933578,0.073509894,-0.049667012,0.055464443
EGFR_Exon 19 Deletion,-0.73044723,-0.820895,-0.37989438,0.43362138,-0.66924655,0.015720837,0.0529843,-0.05773718,0.6597188,0.22442551,-0.79274094,0.38689283,-0.4475847,0.63880056,0.37794203,-0.074381225,-0.20552029,0.06683218,-0.4640851,-0.117117494,0.81679016,0.29960063,-0.6556529,0.023048839,-0.5043503,-0.46826434,-0.3394126,0.25393948,-0.5618892,-0.028666161,1.2721401,0.40980768,1.877675,-0.5204093,-0.5888775,0.3496943,0.20802763,-0.9991505,1.7935971,-1.4521042,-0.44882715,0.44080937,0.08964735,0.29171726,0.17664628,0.05509098,-0.55367136,-0.27977604,0.84217906,-0.44198406,-0.433053,0.2307176,-2.2337594,0.43547028,-0.4770607,0.53240037,0.2635801,-0.7183543,-0.17040443,0.17204441,0.5627597,0.17142017,-0.26638108,-0.36005878
EGFR_G719S,0.033113003,0.4647984,0.4521216,0.033431362,-0.12776405,-0.55370235,0.21862496,0.07938783,0.170051,-1.2767528,-0.3277879,0.029714486,-0.7568504,-0.43195835,-0.08093539,-0.008576509,-0.51027125,-0.1318088,0.18143062,-0.17643513,0.92770565,0.0315731,0.16251528,0.07936883,-0.04110646,-0.16761194,0.19861159,1.130375,-0.23250617,-0.10511142,0.012351202,-0.18429306,-0.370167,1.1858149,-0.044594426,0.47370303,-0.105868824,0.08962861,0.24348629,-0.017961396,0.093374975,0.062536456,-0.24350458,0.8647212,-0.42859933,-0.6556223,-0.47715133,-0.27819276,0.22469805,0.58366716,-0.41811964,0.020342534,-0.37034103,0.6860649,-0.2766603,-0.094776824,-0.05887794,0.29975748,-0.12997666,-0.0048092306,0.42980963,0.33466887,-0.024108866,0.5530549
Pemetrexed,0.43751594,0.26381728,-0.054767378,0.16356193,0.06534744,-0.022929693,-0.032716386,2.1218066,-0.14558774,1.25222,-0.23541898,1.3952686,1.3045018,0.44273493,0.9323471,0.4896357,0.6377324,0.5342902,-0.6723833,-0.69313836,1.0278635,0.073799774,-0.6028299,1.7391793,-0.6797677,-0.20756824,-0.02243138,0.2561105,-0.058569558,-0.35785118,-0.90100366,-0.060217116,1.4950489,-0.013194738,-0.017452743,-0.10725843,-0.41953158,2.4899633,0.21913218,0.2714943,0.8578592,0.40396053,0.19383544,0.08090003,0.70432913,-0.47742677,0.23981096,-1.0653759,1.1418934,-0.79147214,0.3863184,-0.13848378,0.58595335,0.7629152,-0.18027478,1.0194054,0.21960871,-0.27609456,-0.18458861,0.044769097,-0.072813705,0.41460687,-0.83216107,0.60569525
Staurosporine,0.15320915,-0.06889181,0.68647325,-0.004868314,-0.20123585,-0.3564717,0.34956354,0.28471988,-0.8795759,-0.15686153,0.78484166,-0.09816476,0.30968982,-0.3819997,0.17051993,0.7914054,0.039704103,0.26917976,0.11351307,-0.030356858,0.02763524,-0.16810274,-0.69127476,-0.20995657,-0.34900877,0.056165345,0.04254102,0.23001662,-0.006075555,-0.38894305,-0.14228797,0.124074675,0.053378344,-0.8096338,-0.6863383,-0.073675536,0.43427584,-0.027807215,0.17119406,-0.45063698,0.6661361,0.46152395,0.028107522,-0.18416496,0.72024786,0.8945796,0.46393865,0.33139402,0.34596753,-0.013692314,-0.64795786,-0.14381945,-0.071974985,0.08357805,0.51161206,-1.1347709,-0.37916875,0.1293279,0.49115294,1.8208867,0.408269,-0.20778365,-0.18849556,-0.13183758
GATA2,-0.934854,-0.6241287,0.14735138,1.1014537,0.2190311,-0.06533404,0.5499084,-0.40287754,0.18193108,1.6689109,-0.14808567,0.10702769,0.23435888,-0.9919754,-0.34625283,-0.46463734,-0.40205577,-1.6108382,0.24600942,0.49417597,0.20944686,0.59234285,-0.08537161,-0.16858396,0.42568097,0.3015892,1.8926501,0.1415549,-0.21679936,0.141131,-1.1271708,0.008517853,0.55858344,0.4658336,-0.23301153,-0.7179575,0.10494445,0.77908903,0.42798612,0.7451497,-0.10530139,-0.55185884,0.5636909,-0.02281183,0.40243942,-0.38509515,-0.049372382,0.121718995,0.9113694,0.34105808,-1.7464811,-0.64135075,-0.45837703,-0.8283095,1.0119863,-0.12420291,0.20761947,0.15902843,-0.31902787,0.7213034,-0.06590183,-0.46774006,-0.13589507,0.24710791
GATA2_EXPRESSION,-0.21462525,-0.4822574,-0.4850141,0.20308763,0.22294332,0.79176766,0.03376399,-0.1689996,-0.24216995,0.04883883,-0.48813948,-0.5536775,0.59543777,-0.70344144,0.24724106,-0.33210075,-0.028474154,-0.3202577,0.5421576,0.4368332,1.369793,0.63523984,-0.28806624,-0.4438929,0.09901907,0.25058988,-2.1987934,0.039030924,0.32902867,0.39742056,0.8625111,-0.22103614,0.59664685,0.06530449,-0.84328383,-0.20831355,-0.24864304,0.44592452,0.6463095,0.5147934,1.3725563,-0.33163324,0.025796996,0.10606398,-0.54540974,-0.16824706,-0.017863523,0.9533564,0.15338029,0.2230848,-0.17135665,0.51429516,-0.2252597,-0.4335075,-0.10083638,0.30184212,-0.37004805,-0.049208388,1.2002538,-0.14518188,-0.058315426,0.15356024,0.22346607,-0.030888323
Bortezomib,-0.12989336,-0.033240963,0.4297857,-0.43779168,0.15540168,0.10949859,0.039019395,1.4611769,-0.39442557,0.2762175,-0.093269356,0.000633973,0.5745205,-0.7196792,0.10064478,0.95241714,0.24210875,-0.28795654,0.11453593,0.3677029,-0.22108851,0.55464154,-0.71904206,0.3865197,0.5134376,0.46989688,0.08300394,0.20088547,-0.017340973,-0.022762217,0.28013328,-0.15584503,0.64085704,0.5813273,-0.039227974,0.28059763,0.16349973,0.6421025,0.74855477,0.56949717,-0.27267998,-0.70362836,-0.29570597,-0.051013373,-0.27175957,0.60127324,-0.14487611,-0.12984358,-0.18431072,-0.17498669,0.25498834,-0.14543109,1.0060393,0.21529904,-0.48852038,-0.52274245,-0.23531877,0.30786383,-0.059617143,-0.7107997,-0.28379214,0.49277413,0.40696397,0.16271174
Fasudil,0.3473367,-0.4866397,-0.10255974,0.65106374,-0.0058891885,0.07993206,0.26054433,-0.8474835,0.049683582,0.44826075,-0.29703504,-0.17800693,-0.8964903,-0.31479633,-0.14514798,0.5634229,0.1193366,0.4579288,-0.19293427,0.468327,-1.0403281,1.1892022,-0.010578585,-0.13725889,-0.7675941,0.048134703,-0.35058406,-0.7987337,1.1205453,-0.29623175,0.44166386,0.35631657,0.5589737,0.32013923,1.0920184,-0.8916541,0.32020387,0.23551151,-0.04984337,0.15260579,0.6388703,-0.81899977,0.34144232,-0.327062,0.16760156,-0.875511,0.17138591,0.14652711,-0.16078585,0.25642267,-0.0057288213,0.24469994,0.010369839,-0.15183419,-0.37690854,-0.25017604,0.35406122,0.2888628,0.04142464,-0.69109136,-0.10756646,1.5283935,-0.61847836,0.69356745
KIT,-0.29722834,0.11098123,-0.06710171,-0.14472616,-0.10645158,-0.061550457,-0.26593623,-0.015817516,0.006029746,0.20145012,0.022217952,-0.6690834,-0.3022272,-0.7424346,-0.18339163,-0.12119641,0.085326515,0.07391013,0.86186683,-0.011075561,0.06978828,-0.18304205,-1.1277122,-0.5064541,0.6460162,-0.02865227,-0.3489331,-0.020108543,0.047682248,0.23771448,0.3353415,0.40669227,-0.08917118,-0.0027200866,-0.08249492,0.18975472,-0.3724542,0.04219679,0.0181335,0.05211583,-0.017460994,1.0598391,-0.15608105,-0.3340789,0.17335057,-0.26756358,0.03711439,0.162714,0.014344236,0.011945157,-0.76539487,-0.0110893715,0.028072758,0.69558007,-0.086027026,0.20468439,-0.6095858,-0.109478354,0.056706045,0.15319476,-0.07238317,0.529829,0.025954755,0.09467602
KIT_L576P,-0.2795647,0.6978203,-0.38021848,-0.52654314,-0.5140668,0.1094149,-0.9603071,0.22554024,-0.18902981,-0.30520678,-0.2759876,0.16643685,0.41498476,-0.39170516,-0.12592652,0.24230795,0.34243664,0.026418466,0.10465077,-0.15950274,0.110144585,0.3668147,1.131732,0.010882156,0.2838298,0.5281517,-0.50960165,-0.07286816,-0.24070966,-0.28514308,0.12139177,-0.5158192,0.12013192,0.17408094,-0.56796145,0.36471125,1.6819099,-0.36171064,0.67179275,-0.3266781,-0.20779257,0.12335761,0.036635283,-0.14563966,0.6120541,-0.102041945,0.26296115,-0.45369998,-0.0065246867,-0.04416587,-1.335662,-0.07312364,0.95539206,-0.16809078,-0.81608063,1.0560263,-0.04726406,0.7671418,-1.0356627,-0.5623376,-0.514311,-0.37610328,0.2723973,0.06931604
Nilotinib,0.36732015,-0.11208212,-0.87983173,0.033661895,0.44323918,0.13093494,0.40519604,0.08190967,0.65700245,-0.12557231,0.13357827,0.01408514,-0.16895768,0.7286495,1.6325388,0.8223432,-0.6366689,-1.6995262,0.25248328,-0.20137902,0.46540108,-0.5649393,-0.21386045,0.4486059,-0.14839146,0.14920692,-0.43661252,-1.3926178,-0.2886643,0.40863425,-0.32623678,-0.31612095,0.6459855,1.0482671,0.1925613,-0.17822632,-0.1407365,-0.3123728,-0.44138584,1.2429678,-0.6933846,0.2950038,1.059298,0.31783596,-0.008129853,0.40721726,-0.18921919,0.18937267,0.00053406146,-0.19692959,0.3493079,0.016978137,0.23468858,0.57297087,-0.2472278,-0.25755045,0.4428487,-1.446376,0.1902342,-0.35825366,-0.19233799,-0.00972393,0.22368465,0.4661527
Imatinib,1.6088238,0.3272003,-0.76586753,-0.5109432,-0.3976743,0.6094997,0.30729136,-0.2582242,-0.9334103,0.031720497,-0.06659405,-0.56304646,1.5056673,0.29968348,-1.0099883,-0.5844764,-0.17742313,-0.35098487,-0.6618358,-0.5713684,0.7604786,-0.6373129,-1.2298974,-1.075048,-0.58397937,-0.5403311,-0.9390628,0.22383009,1.032693,0.62282956,1.3342836,-1.8098454,0.15906535,-0.7449241,1.3719498,-0.0430681,-1.1504683,-0.09779448,-0.8677568,0.18414927,-0.34294394,0.23162474,-0.26950818,0.27500406,-0.08441677,-0.25406307,0.2319463,-0.52148545,0.08397389,0.4305105,-0.31056392,0.19959946,0.75098866,-0.10383572,1.3554196,0.010839518,-3.022119,0.9399671,-0.07205294,0.4165244,0.33009228,0.68837225,0.16371584,0.065242484
Selumetinib,-0.9756282,-0.53694195,0.42372653,-0.40833676,0.62395334,-0.38741255,-0.095237575,0.646555,-0.76972413,0.3681264,-0.11396168,-1.3545631,-0.45705345,0.36122197,0.2590191,-0.32223654,0.57841384,-0.20654686,0.11453134,0.22041643,-1.216845,-0.45737368,-1.1553609,0.05288905,-0.6128338,-0.2917697,-0.07280638,0.4748877,0.043495134,0.10129328,-0.24465528,1.3122866,0.3518922,-1.3935078,-0.1722169,0.18549562,-0.6845739,0.5192637,0.22881337,0.26182222,0.3944175,1.0387198,0.24391189,0.2693645,0.65522665,0.100581735,-0.83530223,0.037707873,0.5686931,0.24144779,-0.594972,0.1435321,0.22040366,0.98133045,-1.2354008,0.41585445,0.26564047,-0.15967846,-0.58749133,-0.026973478,0.2665907,-1.1483622,-0.037057053,-0.1098522
Dactolisib,-1.1156051,0.82623166,0.080843866,0.16409157,0.099395104,-0.18279013,-0.37815577,-0.39575535,-0.015946908,0.13004492,0.23200588,1.14815,-0.16348912,0.6764955,0.3220556,0.05671997,-0.24493077,-0.07647012,0.9317931,0.20217264,-0.33181182,-0.0651374,-0.18906501,0.10894992,-0.649601,-0.179724,-0.4540541,0.66726935,-0.40734944,-0.020422554,0.24832965,-0.057501815,0.102900855,-0.88151556,-0.10723173,-0.17659341,0.16577467,-0.30711117,0.22775275,-0.5152736,-0.16078207,-0.12975523,0.3732796,0.17704429,-0.10404541,0.51569396,-0.9487425,-0.2083373,-0.28865266,-0.14548428,-0.5853619,-0.030160574,0.49633312,0.054159097,-0.079433866,0.029134007,0.14553834,0.113322675,-0.007907405,0.7804506,-0.24130791,0.503585,0.052124776,0.07779001
EML4::ALK_Fusion AND ALK Amplification,0.08191638,-0.13052143,0.25896734,-0.15730847,0.9728716,-0.3633389,1.6601807,-0.3233119,-0.042664096,0.2475049,0.44732675,0.3030082,0.086869806,-0.22753438,-0.45606413,0.5485216,0.25000364,-0.70982003,0.104901746,0.184583,-0.045431916,0.49682873,0.46712103,0.050031297,0.04747319,-0.5806105,0.03692746,-0.18760328,-0.3535123,-0.21015094,0.1143264,-1.0128686,-0.55434704,0.13251795,-0.004344399,0.3517604,0.06408253,-0.5755376,0.346045,-0.4752446,0.39458564,-0.3347326,0.5350007,-0.15788391,-0.55265504,-0.09630931,0.32810438,-0.5997873,0.99939394,0.25125664,-0.3179825,0.50286555,1.0831602,0.06541719,-0.281455,0.6555124,0.17012472,-0.41988608,1.3491126,0.1464031,0.6559462,0.23443995,0.05549732,0.2531667
EML4::ALK_Fusion AND ALK G1202R,-0.0082282955,-0.5316195,-0.3945628,0.19644693,-0.9865391,0.8477845,-0.16219,-0.8296255,-0.029480908,0.07527263,0.11378327,-0.70374376,1.0277877,0.30926204,0.03649423,-1.0323364,-0.02775031,0.5614272,-0.109301165,-0.3189735,0.16717362,0.655614,1.4859525,1.2019328,0.3494373,0.31553203,0.7776247,-1.0169253,-1.6834813,0.7284835,-0.15394337,0.39899093,0.4235352,-0.92902565,-0.25207362,-0.2614642,1.022839,-0.07052189,-0.0578361,0.93753886,-1.0580577,0.43537435,-0.6493579,-0.41482458,0.039138075,-0.7062986,-0.38203055,1.4268906,-0.40671653,-0.09992214,-0.40886748,0.38044795,0.3140422,0.60970515,0.76707274,0.27366117,0.12461008,0.2612312,-1.3156149,-0.40649396,0.17418051,-0.4538033,-0.006895749,-0.09424038
EML4::ALK_Fusion AND ALK S1206Y,0.11093209,0.11258277,-0.7919647,0.45126304,-0.44794786,0.40010515,0.030953689,-0.6407422,-0.10287257,-0.6374813,0.42384607,-0.097900026,-0.20978518,-0.18194662,0.31692174,-0.33237803,-0.76106316,0.15474421,-0.22187836,0.5500765,-0.33867303,0.18969461,-0.25579968,0.17080148,0.24759541,0.3344361,-0.83532673,0.16357026,0.16971228,0.18999675,0.07841197,0.48002177,0.15890178,-0.27234688,0.055780787,0.47269338,-0.23038116,-2.2060056,0.08429614,-0.026772577,0.19732846,-0.5274852,0.4563126,-0.1530836,1.027032,0.9487714,-0.110918716,-0.30953896,0.18686861,0.15767552,0.41369373,-0.25520906,0.8626332,-0.28746492,0.80394477,0.7932366,0.051333774,-0.042629484,-0.24728237,0.065622754,-0.643212,-0.30997613,-0.6357693,0.018921534
EML4::ALK_Fusion AND ALK T1151dup,-0.15376367,-0.24133171,0.2950875,-0.05759525,0.047118407,0.42484388,0.2256672,0.6269937,0.23838554,0.34997115,-0.38685,-0.32196566,-0.37529445,-0.31060693,-2.4405887,-0.86480063,-0.333597,-0.35242683,0.37773103,-0.10848441,0.89810026,-0.26531047,-0.13327363,-0.13059296,0.028180866,-0.3844754,0.93765604,-0.07842673,0.042755857,-0.0037787342,-0.8299006,0.39132056,-0.27966785,-0.41050485,0.1806907,0.23862684,0.17342293,0.053260807,1.0082172,-0.2960375,0.63748324,-0.078539856,0.25020477,0.030236362,-0.08974538,0.051185437,0.555869,-1.6072742,-0.2940545,-0.07494944,0.22952645,-0.27761886,-0.56137866,0.47785467,-0.38757715,-0.22435975,-0.1293925,-0.039558675,-0.28794056,-0.15513466,-0.014028853,-0.04607353,1.2523187,0.070425615
Multikinase Inhibitor Aee788,-0.26144025,-0.15776943,0.197641,-0.9196709,1.0775887,-0.05766132,-0.52145946,-0.11965371,0.3019658,-0.24272838,-0.36529738,-0.15125713,0.12286083,-0.6588546,0.27517778,0.0075208778,-0.22256213,-0.14516416,-0.06086914,0.029176658,1.651763,-0.024719074,-0.007916109,-0.11807409,0.19975851,-0.037044663,0.023276681,0.09394247,-0.39042625,-0.11496894,0.15584566,0.4565511,0.3765647,0.08149599,-0.38021493,0.09191521,0.17738178,0.37958255,0.13411343,-0.35210562,0.40025258,-0.33825466,-0.0011722222,-0.11432933,-0.41526234,-0.31782472,-0.07313476,0.16429277,-0.2445519,0.047523946,0.49968418,0.124423,0.55848545,-0.39067373,0.6968309,0.2780668,-0.07669958,0.022608517,-0.10313203,0.091449104,0.36106154,0.14433616,0.4142214,0.28860313
Lung Cancer,0.29830828,0.6364621,2.6067872,-0.12732339,0.21534653,-1.4684969,-0.8582602,0.53946906,-1.2347407,-0.70530486,1.0832094,-0.43327653,0.8486142,-0.4483404,-1.2157793,-0.50092995,0.4081132,0.3266459,0.17439191,0.0864843,0.062222827,-0.28545755,1.2220504,-0.49405617,-1.2872311,1.066158,-0.4522598,-0.5941388,-0.7388541,-0.92814493,0.15195602,-0.47097737,-0.42494202,0.6988638,0.8935186,1.0251095,-1.1505808,0.6173349,-0.4254788,1.1451253,0.40216768,0.37544325,0.05968101,-0.7287152,1.0336567,0.23684187,0.2623176,1.1638464,-0.57905257,-1.2116535,0.6902368,1.9990578,-0.13132802,0.028119626,1.4513453,0.5022527,-0.62356687,0.7527077,-0.6775337,1.4014535,0.6246082,-1.3685356,0.449938,0.369347
Rociletinib,0.06533151,-0.9397231,-0.14589176,-0.1302102,0.10164769,-0.31138486,-0.42638284,-0.6363939,-0.4634399,1.1369848,-1.2007612,-0.5448905,-0.617503,-1.4941728,0.036817037,-0.17294893,-0.38687757,0.7006799,-1.1024911,-0.24835555,0.041818168,-1.1027893,0.5549302,-0.09284665,-1.6551825,0.5789002,-0.6495538,0.89962286,-1.0123177,-0.7345464,0.28738782,0.19018231,0.20463738,-0.15417261,-0.21346565,0.240262,0.30058265,-0.3684899,0.3021397,-0.36889496,0.6977741,-0.98657036,-1.2810299,0.7243288,0.042905908,0.2902895,-0.14999443,0.34276944,0.12268012,-0.013040738,-0.009441175,0.553624,-0.06487182,0.39816773,0.5210234,-0.13112374,-0.25546598,-0.5460561,0.5416802,-1.5340885,0.63518345,0.23685956,0.54825103,1.577155
XRCC1,0.34353155,-0.61516076,-1.0316548,-0.77156466,-0.74648887,-1.375768,-0.64652395,-0.0029444448,-0.1966251,0.05787604,-0.19680661,0.12362146,0.012407702,-0.23237343,-0.34548464,-0.17697331,0.21589838,-0.16450344,-0.050784487,1.3628457,-0.89036995,-0.95118773,-0.3499931,0.16739108,-0.5699317,-0.2793416,-0.54501355,-1.1175817,-0.58432573,-0.177648,-0.19739074,-0.3238475,-0.27950543,0.17107458,1.8634716,-0.7135544,0.19388495,-0.42218706,-0.33761922,-0.037428148,0.689731,0.10509291,0.2839559,0.85599923,-0.09398658,-0.48572296,0.021331623,0.5265475,0.107851714,-0.41132966,-0.19479212,0.22112432,0.13171363,0.25438273,-1.3472269,0.15433817,0.44142997,-0.5817211,-0.10387311,0.02154482,-0.34234577,0.08743273,-0.8929742,-0.2516552
XRCC1_R194W,-0.73082024,0.31092367,0.03346543,-0.37291488,-0.042832438,0.35414442,-0.35895836,0.09659168,-0.97298104,1.0444856,-0.16450658,0.9361582,-1.2475897,-0.7556732,-0.09976984,-1.3640693,-0.30130893,-0.35282302,-0.4605701,-0.33888727,1.6946474,-0.095441006,0.7746801,-0.43506142,-0.101632394,-0.5995068,-0.86673206,-0.7423533,0.009103153,0.17450716,-0.50126934,-0.22459422,-0.3404438,0.8662069,-0.44972783,0.2665905,0.42713064,0.53108364,-0.28891146,-0.12997654,-0.25503764,-0.15796673,-0.3558837,-0.20312616,0.68791366,-0.7397654,-0.9229888,0.44962826,0.7024748,0.15957622,1.7572943,-0.5249698,-0.2618626,1.2521719,0.23912232,-1.0281191,-0.35082752,-0.012951428,-0.053675335,0.48466805,-0.108444765,0.2472835,-0.5230381,-0.3376765
Docetaxel,-0.13074091,-0.2967185,-0.25743425,0.30469474,-0.53868854,0.28877142,-0.076504715,0.3377768,0.10702298,-0.089092396,-0.20761581,0.035738826,-0.57527786,0.4461025,-0.23095275,0.9080151,0.7135966,1.1665976,0.15771995,-0.14860417,0.6412635,-0.3213414,-0.81762284,0.12586834,0.114319794,0.10258549,-0.45260963,-0.28490868,0.5861943,0.064057775,0.06352069,-0.32512495,-0.5214772,-3.008322,-0.5099607,-0.27923113,0.38615,-0.455437,-0.17159258,-1.7382629,-0.10588859,0.5594523,-0.23530848,-0.5816227,-0.34360272,-1.1415486,0.13796532,-0.10168741,-0.004209833,0.09690611,0.4431008,0.07056531,-0.2523199,0.3717736,0.3254978,-0.13908102,0.6945826,-0.7415625,0.39794466,-0.008021935,0.58356196,-0.106176585,-0.50132775,-0.32565883
Vinorelbine,1.1368816,0.35398832,-0.4530852,-0.37739506,1.4630324,0.18228659,0.22668746,1.2485241,-0.5925535,1.0013574,-0.027012225,1.5632893,0.91183025,0.78040457,0.4779506,-0.52400446,-0.5215006,1.5896316,0.13796355,-2.0721145,-0.37993082,0.83641136,1.016314,0.10241538,-0.0007029853,0.3492168,0.64729846,0.650182,0.25609222,-0.15932143,-0.3914911,0.18748164,0.52401686,-1.2703916,1.1084181,1.2315996,0.6780751,0.82712024,0.15380652,1.3939579,-0.06708621,0.31356522,-0.8614424,-1.0359886,1.6440896,0.37494254,0.23677655,-0.29590133,1.7833304,0.9618764,-1.2219362,0.3593502,-1.4156814,-1.0978779,-2.1508307,0.18141879,-0.6599871,0.019992504,0.39674875,0.9713612,0.008945418,1.4710858,-0.18364528,-2.0858204
Gemcitabine,0.10417612,0.2519452,-0.12380854,-0.2031556,-0.48303238,-0.19602847,-0.14810081,-0.4184767,-0.98401684,0.3606443,0.9174634,0.1270969,-0.6820649,-0.4263025,-0.41120934,0.029599769,-1.4698342,0.7861591,-0.09031174,1.3761355,0.24560493,0.12304447,-0.10458205,1.0493007,-0.728288,-0.23610084,-0.6402957,0.18212305,0.5333004,-0.08963592,0.15027605,2.2003832,-0.8575996,0.09676417,-0.2579476,0.068530835,0.7602206,-1.125119,0.21651335,0.39018625,-0.9330851,-0.18068752,-0.114776365,0.19493684,0.9665941,-1.3742863,0.26510516,-0.08085703,0.3397875,-0.2537436,0.26949197,0.39961988,0.95232886,0.507999,0.05954552,1.3755845,-1.6910188,0.20268351,0.2398082,0.18028691,0.12507014,0.27682686,-0.24211472,-0.19930202
ABCB1,-0.37320063,-0.12703769,0.31884924,-0.32027656,0.14716832,-0.06250667,-0.47097108,-0.951214,0.6848997,-1.3004154,0.19793545,0.38453954,-0.09574506,-0.023744484,-0.1324896,-0.75741726,-0.37044418,-0.41212383,-0.14237088,0.5691759,-0.14017098,0.64307123,0.83489037,-0.06817646,-0.48623452,-0.078539,-0.025542555,-1.1724662,0.012199608,-0.17424583,-0.44858417,-0.21316518,-0.48069754,-0.18197657,0.07030195,-0.13663715,-0.5212764,0.59403175,-0.12152994,-0.16266704,0.04677877,-0.17025498,0.5238961,0.64182657,-1.2449194,-1.0924913,-0.2845263,-0.12901415,-0.5871314,0.7303838,0.24555714,0.12477949,0.28291222,0.059571967,0.054385785,0.5482653,-0.2643657,0.035193328,-0.8139333,0.26962653,0.34679472,-1.0928292,-0.08385184,-0.21859603
ABCB1_I1145I,0.26266298,0.8036503,0.087305844,-0.011664091,0.34580347,0.31242868,-0.38418382,0.34518307,-0.03251405,0.35548306,-0.044151217,0.69988614,0.691805,-0.21588612,-0.21893492,0.14934038,-1.2885491,0.15266734,0.6641544,0.3566166,-0.67181796,-0.6122351,-0.21750723,0.2984591,0.0013902832,0.514782,-0.14549196,0.8358332,-0.22371854,-0.25690025,-0.2453568,0.16086346,0.9303512,-0.52362865,-0.049484663,0.54493445,0.49001595,-0.06437366,-0.15612946,0.28531587,0.18665148,1.3007754,-0.06866495,-0.34948632,0.18504119,0.08858816,0.26884922,0.20479387,0.83796304,0.7457082,-0.5634753,0.32578665,-0.6280193,-0.3470803,0.7163039,-0.90443164,-0.37174594,-0.3245451,-0.20306295,1.200975,0.33734554,-0.027008578,0.105785094,-0.46246383
Cisplatin,0.08285305,-0.22132257,0.84878826,-0.40388337,0.27558142,0.02497685,-0.9250048,-0.01803808,0.37348294,-0.4513205,0.37682217,-0.052419897,0.98000664,-0.15457802,-0.33538565,-0.2317372,0.6117657,-0.0044419444,-0.062095728,-0.43185464,-0.35691172,0.56189436,0.2690799,-0.12021831,-0.8138892,-0.16395,0.45824787,0.028302886,-0.16552617,-0.5854269,0.73726827,0.29307595,-0.13192143,-1.1902505,-0.060308725,-0.3302716,0.27182823,-0.017799871,-0.23367907,0.20408253,0.46249416,0.7516706,-1.3218508,-0.45249858,-0.8178334,-0.43597788,-0.20229712,-1.0056694,0.4057901,-0.5811942,0.5709661,-0.033537503,-0.3978604,-0.24831186,-1.1654409,-0.6042948,-0.36154497,-0.28232795,1.2152861,-0.034767378,0.59118277,0.23681623,-0.12794915,0.24750564
Carboplatin,-0.23226057,-0.8019745,0.35962915,-0.17589156,0.21001026,-0.006050908,-0.13077919,0.41423115,0.10796968,0.06371401,0.13744324,-0.21426432,-0.32275215,0.36964914,-0.1696449,0.11391066,-0.54143596,-0.24162567,0.045598898,-0.57181,-0.2004936,0.016911425,-1.6751806,-0.08721793,-0.44134685,-0.049335103,-0.2642089,-0.3569054,-0.051487923,-0.26280716,-0.030159224,0.20783898,0.07569457,-0.5417071,0.12068013,0.0792554,0.22465375,0.00016864348,0.12205087,0.077100635,0.5261016,-0.08324108,-0.24998948,-0.8516488,-0.22137143,0.1360257,0.20357363,-0.15864529,0.81680846,-0.16352375,-0.60602933,0.17793906,0.17274067,0.48382255,-0.053050846,0.25557646,0.2741217,0.12713107,0.42671,0.031186834,0.1573238,-0.052764647,0.22611374,0.22166675
ERCC2,-0.36146727,-0.033403274,-1.1312819,-0.09456741,0.24558634,0.46802357,-0.13424739,0.30220568,0.096176006,0.6334179,0.83250064,-0.30283275,-0.13980456,0.02339625,0.046001043,-0.04433914,0.8527715,-2.3993561,-0.2768047,-0.017758938,0.06373132,-0.47032744,-0.09958583,-0.66299176,0.14855537,0.09726599,-0.12769473,-0.08796401,-0.29131383,0.30922124,-0.009295058,0.39811498,0.16798347,0.0416938,-0.25223118,-0.06906974,-0.62469614,0.6723036,-0.19321546,-0.4796318,0.4102967,0.28257015,0.17297511,-0.25512087,-0.18492419,-0.04352148,0.4352613,-0.14724305,-0.35738432,0.12442952,-0.4872546,0.65391344,0.033602044,-0.30169052,-0.4519464,0.04956946,-0.1369008,0.13345584,-0.35069636,0.07552341,0.20266752,0.4455142,0.9832033,-1.6174384
ERCC2_K751Q,-0.53452927,0.36054653,0.1287391,-0.46966687,-0.31550345,0.96358573,0.009144868,-0.7782268,0.69613576,0.7213489,0.016211238,-2.6540315,0.45089334,-0.1302092,0.59532607,-0.37349385,-0.5643392,-0.3256909,0.1566648,-0.44689795,-0.48183423,1.8302909,0.96612513,0.91445243,-0.1806591,0.0929968,0.17088288,0.46825615,0.13771813,-0.006110806,-0.07648835,0.8181386,-0.24201223,0.4712938,0.39505938,0.5680016,-0.08052929,-0.28107128,-0.4695849,0.7985198,0.20170723,-0.34520507,0.03193072,0.4839597,-0.20040245,-0.50408024,0.34557125,-0.4641932,0.3704462,0.5806445,-2.2012262,-0.008960793,0.1433494,-0.46835488,-0.7947579,0.4989688,-1.0340351,0.9153693,-0.5158621,-0.008808641,1.0928932,-1.6060218,-0.12839052,-0.16451494
Paclitaxel,-0.25511107,0.64236206,-0.5862662,-0.3104131,0.09349469,0.21754599,0.093541384,1.4743528,-0.65433997,-0.04257799,0.73647976,0.13855182,0.069951996,-0.8103301,-0.02150656,-0.7044877,-0.08195068,-0.68392646,-0.106529534,0.12914595,-0.6517326,-0.4530471,-0.19756585,0.24177739,-0.5143819,0.27289155,0.057008334,-0.21266045,0.095492356,0.925259,0.21811363,-0.24721095,0.97932965,0.117682,0.7325154,0.21957736,0.82773674,-0.87548435,-1.039395,-1.3504786,-0.011777499,0.786555,-0.40184268,0.32731816,0.37329006,0.24747406,-0.09214762,-1.0185362,0.9319899,1.6432335,1.1426542,0.49815074,0.3050909,0.751973,1.3312494,-1.1757278,-0.67357767,0.5829058,-0.27349746,0.8554252,0.5748717,-0.31178677,-0.48152372,0.6790712
FGFR1,0.20565917,0.44948536,0.029353883,0.05875761,1.7971479,0.6531274,-0.008817841,0.06229798,-0.50640565,0.088798285,0.6751008,1.1240599,0.16634223,-0.09129923,-0.05030962,-0.23259777,-0.1753654,-0.20506471,-0.25877574,0.6622516,-0.089314215,0.37593204,0.29526195,-0.3319692,-0.41541132,0.27154598,-0.011802846,-0.07229267,0.46966186,-0.10803142,0.8014577,0.015136163,-0.6715701,-0.94960684,0.16379575,-1.2741761,0.97209144,-0.14551643,-0.0971803,0.34096247,-0.09002127,-0.04938055,0.044586275,-1.3934823,0.3341971,0.39261433,1.2518838e-05,0.67484134,-0.22246194,-0.29014286,0.19638072,-0.055214044,0.18347634,-0.51979417,-0.507052,0.26270983,-0.06276182,-0.16413838,0.2788156,0.12383681,-0.21220036,0.039398357,-0.14670871,0.30315468
FGFR1_Amplification,-0.14840186,-0.39603636,0.16692328,1.0871297,0.55564797,0.2968971,-0.5057629,-0.5110139,0.13449502,0.37777406,-0.4939133,0.6928973,0.052007094,0.017374605,-0.2603032,0.15172097,0.17826366,-0.35698545,-0.1366893,-0.43451366,-0.23677213,0.06176808,-0.1253899,-0.32712826,-0.2487818,0.09111345,-0.45173642,-0.1675079,-0.51120514,0.031734277,-1.4897001,-0.20462339,0.08796015,-0.06133013,-1.0759598,0.391193,1.182769,-0.9488011,-0.4387649,0.18493402,-0.34396243,-0.14928724,0.409066,-0.104908556,-0.42484024,0.4604635,-0.018909933,-0.76700234,-0.37895143,-0.2724693,-0.35802573,-0.31597185,-0.75399274,0.04270604,-0.35398272,-0.49203092,-1.9064296,-0.054243285,-0.32612857,0.39263466,-0.04296928,0.9047434,-0.30440837,0.20883909
Pd173074,-0.36792096,-0.7897648,-0.68191105,-0.18832147,0.299652,-0.3250213,-0.58997387,-0.35690153,0.24009635,0.35338536,0.10557217,1.0640403,1.3233014,0.32576323,-0.21982151,-0.1508809,0.3843665,0.8876234,0.379885,0.49926832,0.15077055,-0.45160776,0.27877092,1.2039535,0.11942872,0.54533875,-0.80651134,-0.26880866,0.5798046,0.18247736,0.7482221,-0.029025922,-0.8785118,-0.08557387,-0.6328014,1.54034,-0.2385809,1.4090645,-0.115503654,-0.18962114,0.10370921,0.42861342,0.16401526,0.36659652,-0.25860238,0.6846011,-0.32496524,-0.34315675,-0.010374529,-0.81140023,0.7594498,-0.005500636,-0.13622859,-0.71766853,0.6320087,-1.076682,0.025808461,-0.14182453,0.17455432,0.17702198,-0.70633185,-0.77045333,0.34491473,0.38048443
Lung Squamous Cell Carcinoma,0.013341651,-0.2008821,-0.62834495,0.16000664,0.90161186,-0.4991122,-1.1400462,-0.59659827,-0.2615262,0.022485038,-0.03050901,2.1578782,1.0701168,0.80073345,0.7756307,0.7950566,0.27439523,-0.082610205,-0.84633094,-0.38355806,-0.082960516,0.4321558,-0.95857435,-0.07482754,-0.025225457,-1.1733035,0.30041984,-1.2902775,-0.4146586,-0.13186844,-0.015960665,0.1660542,0.8467784,-0.68405616,-0.5960636,-0.8699413,-1.0788667,0.07578668,1.0283974,0.5752306,-0.14906707,0.26692474,0.16519839,0.020877298,1.1445509,-0.117760055,0.78921545,-0.6137656,0.5360936,-0.2901038,1.0985365,0.029838072,-0.27182686,-0.17217083,0.3916732,0.4159209,0.00051819393,0.18461376,0.011382405,-0.053552926,0.5933411,0.13834038,-0.5074069,0.2751407
FGFR1_Expression,-0.15219867,-0.12430445,0.11425838,0.123148754,0.13632527,-0.082834184,-0.01707711,-0.4150579,-0.5062682,-1.2749432,-0.9913144,0.28178668,0.21914887,0.18555485,0.088807195,0.0040717665,-0.69986445,1.6553864,-0.17345515,0.62376505,-0.58243704,0.3505479,0.813328,0.11514631,0.38248283,-0.16857047,-0.06855718,0.2603995,-0.96424335,0.07650962,-0.71016604,-0.19765538,0.0054801903,-0.004216664,-1.1326607,0.10835421,0.6167874,0.009127488,-0.38329375,0.06070824,0.07963516,-1.0046761,-0.034078408,-0.567871,0.73730695,0.14356764,-0.0046125483,-0.027951099,0.13699003,-0.66109717,0.82765055,0.11064189,0.9434406,0.15537006,-0.98507744,-0.08708982,0.31834906,0.75459296,-0.44472829,-0.16188763,0.7119009,-0.3999555,-0.062913984,-0.42538637
Ponatinib,0.574078,0.1581076,0.43713948,-0.3346784,0.105980694,-0.20522954,0.08404917,-0.3286915,-0.39743844,0.012053219,-0.039231345,-0.07145707,0.31661525,0.017819136,-0.13344748,-0.06735596,-0.0036234402,0.018622544,-0.2713276,0.30313066,-0.10917978,0.07363759,-0.10039612,-0.5237082,0.3061207,-0.015079325,0.15768802,0.18566968,-0.1602771,-0.19816372,0.28839535,-0.11268307,-0.089827545,0.12680225,-0.012088129,-0.108344525,-0.42079312,0.38031095,-0.015515403,0.4379433,0.044676393,-0.32722867,0.048824478,0.09643158,-0.09830771,-0.043220714,-0.09874552,0.2727682,0.017221589,-0.020382678,-0.11647482,-0.21760017,-0.1346259,-0.2977941,-0.226023,0.025232024,-0.6252047,0.170527,-0.6188539,-0.2528755,-0.25246245,0.33766204,-0.87180173,0.13175642
V::ROS1,0.19114338,0.31498855,-0.05462529,-0.28966913,-0.062767014,-0.39061463,0.39609984,0.2623401,-0.31525117,0.20488404,0.09580169,-0.0029109232,-0.3719388,-0.42532772,-1.388737,-0.05524744,0.023158075,-0.018317573,0.39065114,-0.19620012,0.8277305,0.0006390962,0.39997622,0.0028496913,1.0121572,-0.1511119,-0.2586741,0.45837864,-0.16030686,0.02029756,-0.017122757,0.021405503,-0.10072516,-0.19902194,-0.9321809,0.16652124,-0.12393682,0.20470473,-0.10913334,-0.1492782,-1.301695,0.67573065,-0.095306724,0.27191186,-1.0685884,-0.13077953,-0.14506558,0.056554187,0.39718983,-0.20810403,-0.44009385,0.3663995,0.17921397,-0.11143162,-0.020666419,0.38629898,-0.055448953,-0.33176902,-0.27603042,-0.07976419,0.17127609,-0.049220216,0.020442614,-0.052644905
V::ROS1_Fusion,0.2316623,-0.15315662,0.6282587,-0.07738196,-0.30043164,-0.15334675,0.13838372,0.0023166633,-1.0067377,0.51598054,-0.30717185,-1.4253592,0.42150256,1.1144553,0.08698747,0.24242838,1.2879581,0.05010956,0.37785476,0.5447885,0.5215489,-1.2255975,0.034271326,0.14508587,-0.74067163,-0.112055525,0.20803815,-0.004728428,0.1986194,0.56077445,-0.014620076,-0.08303865,-0.57242197,-0.665524,0.03469251,0.01705504,0.07365369,-0.39443108,-0.28678724,0.21559991,-0.3451609,0.19857395,-0.052345246,-0.12259457,0.26647866,-0.09855831,0.65705776,0.014199415,-0.4330735,1.3562754,-0.122881405,-0.62241983,0.6034685,-0.31043595,0.4231704,0.30146262,-0.715473,-0.8910889,0.32739335,0.28762737,0.07513494,-0.15979834,0.1478875,0.43441004
EGFR_Overexpression,-0.4491805,-0.8876306,0.18849647,-0.5269573,0.026584152,1.3122818,-0.697797,-0.26859957,-0.2641334,-0.27726308,-0.15543084,-0.24239491,0.573519,-0.20931423,-0.09708682,0.14093326,-0.20889586,-0.65845525,0.43255877,-0.10284824,-0.23724173,-0.2868202,0.634934,0.85730594,-0.29207164,0.81029826,-0.33667833,0.09202855,0.10662811,-0.2953151,0.49176565,-0.013575783,-0.16816713,0.25517172,-0.09941236,-0.24723706,-0.10999492,0.30008548,-0.002348276,-0.19094183,-0.49721676,0.6951149,-0.13719872,-0.019355675,1.0130519,-0.1374013,0.23868075,-1.0315412,-0.3254582,-0.35988763,0.15472646,-0.35897106,0.40030926,0.4535129,-1.0897268,0.1629442,-0.35434255,-0.30871087,-0.2742927,-0.03229919,0.6275196,0.09590174,-0.31212786,-0.06962022
Epidermal Growth Factor Receptor Tyrosine Kinase Inhibitor,0.11018345,-1.7919291,0.3139968,-0.28249595,0.17563228,-0.20741019,-0.32458454,-0.68296534,1.4070777,-1.1690358,-0.4723983,-1.0586342,-0.66835296,-0.3342474,-0.91573775,0.4190134,0.21640328,-0.09525655,0.32919985,-1.0212133,-0.26330537,0.55122924,-0.018200776,1.2474226,0.06580666,0.47988603,-0.20316976,0.75475985,0.2531441,0.4451578,0.02795772,0.3517116,-0.33771873,-1.2428619,0.5241794,0.29069063,-1.0186108,-0.3780376,-0.8628551,-0.93220943,-0.020759197,-0.30129707,-0.47394264,0.1797864,0.66021156,1.528789,-1.1159731,-0.122546285,0.2900499,0.5449043,-0.7283129,0.9777587,-0.31697148,0.37945998,-0.23474291,0.89250076,-0.05647061,-0.4095957,-0.07083534,0.33443382,-0.7991963,0.59510446,0.26896623,-0.31235754
KIF5B::RET,0.6991298,-0.21603052,-0.035553504,0.26882163,-0.33613124,-0.83971864,-0.67105955,-0.14104697,0.29137227,0.32492226,-0.1760084,0.319518,0.1812432,-0.510754,1.6341784,0.13519377,0.043855414,-0.24804543,-0.08209912,0.62435114,-0.10120505,-0.530826,0.26360732,1.3457619,-1.3080175,1.3036503,-0.3248737,-0.1986818,0.1074418,-0.015038275,-0.16095924,0.34826833,-0.26631817,-1.0633689,0.22594231,1.1526935,-0.20514345,0.11208814,-1.2569321,0.20534168,0.043948546,-0.29485562,0.06343375,0.23457542,-0.018297024,-0.11730188,0.62832797,0.18421793,-0.18180953,-0.0036559314,0.11551214,-1.3046858,0.0729637,-0.14135699,0.2547655,0.1119262,-0.07775355,0.4915474,-0.41133025,-0.56582403,0.47446096,0.22082686,-0.026279945,-0.26701492
KIF5B::RET_Fusion,0.16277872,0.28224865,0.46868673,0.23019716,-0.038856685,0.11309957,-0.12740783,-0.086596824,0.37949294,0.119168706,-0.18902656,0.29769808,0.24699219,-0.10009534,0.3623602,0.32318234,-0.050494175,-0.18398298,0.06156418,0.0075631086,-0.18668482,-0.055055656,-0.10975851,-0.25698504,-0.061425306,0.2992299,-0.24427022,0.26234022,-0.27430907,0.21421595,-0.5300507,0.22737667,-0.54979885,0.060385536,-0.012638807,0.17196973,0.115268685,0.40276486,0.03977316,-0.18379843,0.1555409,-0.3668642,-0.020873373,-0.22803861,-0.07829166,-0.20445323,-0.007207969,-1.7077671,-1.0118514,-0.63283074,0.031000003,0.05682635,0.0024225677,-0.09538942,0.010119056,-0.8384165,-0.04880387,0.57363224,0.16256468,-0.16918483,-0.015854638,0.03053825,-0.057854183,-0.41771346
Vandetanib,1.8191738,-0.0065000793,0.048749782,0.36807632,0.23385477,-0.29769403,-0.059859402,-0.6691708,0.60751045,-0.45927766,0.3241231,-0.9333344,0.8456082,-1.8531793,0.06428613,-0.12619059,0.44727328,-0.108224824,0.5034118,-0.08241761,0.09371641,-0.19105452,-0.06687487,-0.12368997,-0.06474729,-0.043628555,-0.10167876,-0.53021026,-0.69542676,-0.002610162,0.6841393,0.18679437,-0.18499558,-0.107997656,0.7164533,-0.0839932,-0.39561564,-1.2458538,0.6954864,-0.46906742,0.57113546,-0.27977288,0.12947397,-0.46723723,-0.8484396,0.46462142,0.07088731,-0.33372417,0.39886996,0.3718467,0.75327593,0.09682987,0.008579029,0.27968132,-0.31028274,0.5658576,1.2863597,0.83546257,0.079576775,0.16471706,-0.31701744,-0.65174675,-0.03115706,-0.24443477
MET,0.095235005,0.3122826,-0.4506281,-0.3475672,-0.10001235,-0.060339205,-0.0490876,-0.121668786,-0.3485697,-0.48616004,0.4044587,-0.05405514,0.08126016,0.2488796,-0.16692694,0.6994224,-0.019169614,0.17444453,0.007633725,-0.5121336,-0.06845987,-0.015432176,-0.0075161504,0.10140619,-0.6653525,0.37420997,-0.18760855,0.23928049,-0.051567033,0.38466737,-0.06481779,-0.033847287,-0.23759165,0.12864886,0.2061419,-1.6816611,0.20525216,0.06304297,0.8720605,0.042092286,0.078026325,0.24575889,0.2214231,0.12949239,0.20137742,-0.34884244,-0.015459252,-0.18949454,-0.4090582,-0.14973865,-0.2330201,0.040782183,0.16165787,-0.49730632,-0.30241856,0.2547798,1.2331735,0.38569215,-0.015800517,0.36021146,0.013726198,0.5343825,-0.022777606,0.1921913
MET_Amplification,0.2560827,0.23773041,0.19696562,0.020599583,0.532728,0.2957428,-0.13440585,-0.38898364,0.072790414,0.024364095,-0.0765652,0.24483998,-0.054362264,-0.19810657,-0.2025329,0.15686883,-0.36907467,-0.04618731,0.123300165,-1.102266,-0.09703237,0.12665437,0.10244669,1.2449487,-0.6861997,-0.15122524,-0.2836532,0.24397063,0.0010677978,0.601042,0.31353,-1.5902026,-0.40420982,-0.88910955,0.27537435,0.15124078,0.5167899,0.4011115,-0.1712484,0.17600432,1.401578,-0.7823592,0.18962346,-0.20436914,0.15171438,0.41423503,-0.41675144,-0.029078417,-0.31430066,0.23790616,-0.05833204,0.089883626,0.5678595,0.24976127,-0.6007518,-0.64425486,0.42696095,-1.121363,0.43273377,0.13106473,-0.04070914,-0.6260876,0.5386662,-0.22018138
RIT1,-0.69197005,0.30708265,0.09219694,-0.635168,0.62160546,0.11485027,0.33755714,0.8761927,0.40636486,0.3814683,-0.25417948,0.24575011,-0.23386444,-0.16750741,0.43141815,0.09765258,-0.020350907,1.2851213,-1.7134881,0.547292,-0.07999998,-0.23158191,0.6742353,-0.13837326,0.76771545,0.56444263,0.39571193,-0.25341433,-0.16872872,2.0597622,-0.9141711,-1.2636085,-0.7470931,0.65002316,-0.5141535,-0.29609895,-0.553794,-0.05264996,0.93033695,-0.038870856,0.7314174,0.16885826,-0.5033641,0.41812712,0.5919047,0.79719174,-0.09395094,0.40245184,-0.2811468,0.46553618,-0.40528804,-0.09277911,0.66507465,0.36739954,-0.14645728,-0.48918158,-0.26308838,0.63155717,-0.16649817,0.030809624,0.20651628,-0.20272055,0.40452147,0.41542268
RIT1_Mutation,-0.48740703,0.19283314,0.28317297,0.16280572,-0.21305934,2.8530846,-0.07777791,0.25145352,0.8091667,-0.2547639,-0.018905642,0.07921069,-0.62914115,-0.40368867,0.1414165,-0.014764753,0.87226516,-0.018776631,-0.42397374,0.6208156,-0.56862223,0.51608324,-0.28228405,-0.004352789,0.36346188,-0.8380817,-0.34937567,-0.30333352,0.1590157,-0.36138555,-0.5864035,-0.27931032,-0.079891555,-0.34532753,0.31113747,-0.101138666,0.4879539,0.5114391,1.1297784,-0.1439708,-0.084075056,0.7084326,0.0054626907,0.2265656,-1.0329143,-0.3693227,-0.9442156,-0.08372057,0.08834204,0.33792385,0.4469604,-1.0620962,1.543121,0.13286756,1.0190269,0.09497246,-0.016549567,0.4513766,-0.35799843,0.5760956,0.9416038,-0.5235007,-1.8222944,-0.4961391
Pictilisib,-0.16335982,0.0785164,0.066272445,-0.5168493,-0.14270322,0.68828166,0.6377074,-0.73268676,-0.8172048,-0.8054867,-0.46349552,-0.2915716,1.0601925,0.22104204,0.009395127,-0.89258623,-0.43465543,0.10698171,-0.35298362,0.36428264,-0.13267386,0.39228496,0.01255106,0.18157044,0.21065168,0.18771385,-0.2887261,0.10287936,0.023520317,0.85235614,-0.25791967,0.35315922,-0.12586333,0.09082685,0.8312726,-1.322959,0.6798114,0.5932973,0.6458822,-0.076841764,-1.051406,-0.015628988,-0.17086932,0.09236152,0.009016863,0.8739592,0.7201345,0.06357457,0.12704957,0.21530984,0.20278397,-0.16579017,0.033861104,-0.6926429,-0.025076695,0.080544546,0.6976968,0.13901804,-0.11898782,-0.24353331,1.3788356,0.75762904,0.39951304,0.067953095
CD274,0.19552243,-0.006768557,-0.080865376,-0.23063256,0.5410055,0.0082167955,0.70964915,-0.53137434,0.23242444,0.018519985,-0.09281277,-0.017153453,-0.6269107,-0.063345864,-1.2273812,0.14908107,0.041530948,0.34443802,0.06459941,-0.76590526,0.017858606,0.43039176,0.37904996,0.23874518,0.37239376,-0.14143579,-0.21286336,-0.40017542,-0.28921258,-0.018256428,1.0557197,0.18171003,-0.2869585,0.18583052,-0.02559653,-0.5164207,-0.16202293,-0.21404503,-0.54035753,0.21240893,0.03444886,-0.6369761,-0.28777212,0.018175019,-0.043822393,-0.12588465,-0.26987985,0.4978242,-1.5376935,-0.63994336,-0.61676246,0.7168922,-0.018989453,0.8348806,0.70233,-0.2845867,-0.051729545,-0.14057158,-0.3265135,-0.33634573,-0.7791815,-0.21838203,-0.4271241,-0.23834176
CD274_Expression,-1.4105396,0.14527087,-0.14370325,-0.089925826,-0.08502823,-0.20649996,0.73624295,-0.031683374,-0.6133499,-0.044771217,-0.35229027,-0.60838324,0.08737942,-0.58687985,0.22214805,0.2633781,0.4789358,0.21479902,-0.5419598,-0.36340493,0.27621615,-0.9352381,1.552695,0.059302248,0.012385123,-0.14722571,-0.20222488,-0.41375068,-0.7192058,-0.18573172,0.5404523,-0.13677076,1.140498,-0.27286294,0.7634719,-0.120596424,0.06445805,-0.083180316,0.0633016,-0.10773495,0.12394227,-0.3353886,-0.25388694,0.26107058,0.062156036,0.21238899,-0.56967527,0.21045256,0.01480231,-1.0361043,0.6003388,0.5967932,-0.8239883,-0.5677167,0.3520066,0.65816355,-0.7454127,-0.23330005,-0.2773725,1.116874,1.5880437,-0.2823828,0.089738,-0.09727555
Pembrolizumab,-0.3614486,0.19654365,-0.46066102,0.27526855,-0.078931615,0.098419696,-0.7873221,-0.019934013,0.04008545,-0.27208358,0.05727984,-0.15913273,-0.055897478,-0.4259458,0.25833032,0.16941167,-0.2617871,-0.5656009,0.04171947,-0.32989788,-0.012838697,0.33850336,-0.21687031,-0.006884693,0.14658844,-0.25198615,0.383813,-0.04845994,-0.40944743,1.076495,-0.023837097,0.13551849,-0.28316578,-0.83573127,-0.07201617,0.07679863,0.026429879,-0.67074984,-0.033597577,0.5438046,-0.56206113,0.124754496,-0.09978032,0.103106014,0.26709378,1.1099527,-0.024467682,0.08978026,-0.72897756,-0.05701494,0.06724047,0.48766145,0.08816253,0.0053156605,0.44368762,-0.6993231,0.05431582,-0.19310302,0.28778133,0.24445994,0.26275524,-0.1788908,-0.1966023,0.44599456
Nivolumab,1.1440524,0.41066033,-0.3466899,-0.90015197,-0.8117525,-0.04362585,0.72633696,0.16111426,0.90581584,1.1881098,0.29721704,0.3473522,0.39978763,-0.19571844,0.19248112,0.6008672,0.40998435,0.19964336,-0.14171976,-0.52609473,-0.31898433,-0.1641429,0.9858307,-0.48946235,0.13389775,-0.590963,-0.043748308,0.78497565,0.24367186,-0.42087695,-0.29340222,0.2102427,-0.45913354,0.101323254,0.053475745,0.030818475,-0.5509505,-0.75669295,-0.36574945,-0.04442713,0.3609886,-0.02576013,-0.3756038,-0.08249097,0.8790391,-0.8324615,-1.9708767,0.23769937,-0.2137145,0.5831719,0.7328383,-0.16727579,-0.96499544,0.93221986,-0.32525456,-0.69148624,0.59862614,0.07431365,-0.09948092,0.41501528,-0.31803733,-0.36925453,0.38840708,-0.5792174
EML4::ALK_Fusion AND ALK L1152R,0.30349264,0.22696623,0.31693524,0.48273888,-0.032651898,0.48778397,-0.102725685,0.083490334,-0.61482596,-0.29809704,0.467731,-0.0030572356,-0.0730676,0.31842902,0.85635763,0.17948765,-0.3433799,0.10719433,0.06328423,0.7218179,0.3414377,-0.088330284,0.558458,0.70991594,0.016313937,0.32770148,-0.68554896,0.04340515,-0.42168045,-0.05231925,-0.3690513,0.26202965,-0.5064536,-0.46878618,-0.54318565,0.59245104,0.82958657,-0.3243792,-0.41377017,-1.0423722,0.3218322,0.31020057,1.120391,0.38457462,-0.7051074,0.20886277,0.20681462,-0.34010148,1.0490428,1.1831996,-0.9837509,0.18091998,0.20069362,0.59345204,-0.43003893,0.13010082,-0.086647354,0.2074454,-0.079828866,-0.2448755,-0.5105509,1.0708714,-0.12579706,0.109182365
EML4::ALK_Fusion AND ALK G1269A,-0.10001652,-0.13619664,0.3848588,0.11194063,0.2087387,-0.065162145,-0.14171459,0.042692013,0.31607166,0.0110952,0.18106286,-0.15717074,-0.14356184,0.30767298,0.7085784,-0.82231313,0.67541546,-0.05986054,-0.25264087,-0.21526974,-0.30972198,0.13973118,0.17100312,-0.42301643,0.3091529,-0.20263562,-0.34389395,0.0036279107,0.2995483,-0.0756095,0.75958174,0.86662173,-0.7614416,-0.21681203,0.6833113,-0.93839884,-1.0789285,0.05467294,-0.15289272,0.03919449,-0.7864242,-0.2903903,0.068742156,-0.0126247145,0.10899468,-0.010887767,0.074002974,0.7014614,-0.029941274,-0.00845534,-0.115692966,0.3808326,0.13506885,-0.3840177,-0.12102077,0.22917154,0.44385803,-0.013347227,-0.156676,-0.19872876,0.17545176,0.7680991,0.16541544,0.0328503
NRG1,0.32024887,0.038175073,0.045444455,0.8442315,-0.3045212,0.3770233,0.16562063,-0.42680407,-0.76515806,-0.054451812,-0.64234924,0.19941212,-0.9862336,0.8503893,-0.2258288,0.025057558,-0.20622812,0.011818546,0.24538188,0.35245183,0.012035932,0.25842202,-0.12036192,0.27993482,1.4179679,0.37352148,0.56538624,0.1936874,0.43750432,1.8850077,-0.18808562,0.27212247,0.24241067,0.14236021,-0.4977188,-0.101725094,0.20351185,0.33821917,-0.39569086,0.0121512385,-0.15816313,0.72403425,-0.24985538,0.66975564,0.14074163,0.21738656,0.35863727,-0.9179268,0.3310968,-1.05688,-0.5148086,-0.17905113,-0.46151334,-0.1634271,0.008628845,-0.7257523,0.07684367,-0.66097665,-0.105825044,0.07948553,0.32420164,-0.298904,-0.59133035,0.0015679945
NRG1_Expression,0.08675862,-0.04444524,0.21526082,0.07919892,0.082663275,-0.059505828,0.07051224,0.47721526,-1.102371,-0.014973857,0.28420487,-0.13826701,0.07334349,-0.13415447,0.5819591,-0.24139643,0.25650272,0.06834471,0.021688666,0.009253397,-0.048440743,0.16959631,0.033595283,-0.14695862,-0.19222811,-0.24811555,-0.008867521,-0.18805997,-0.046865348,0.020214813,0.16399403,0.055883005,0.4981497,-0.61583626,-0.21197252,-0.10054192,0.5021126,0.0772108,0.008406579,0.28903064,-0.44250372,0.28550085,0.16978154,-0.036162067,0.021932682,-0.11567778,0.339604,-0.021657737,-0.16531324,-0.26598355,-0.0696069,-0.23659945,0.047066256,0.14077404,0.29537642,0.4218159,0.08016742,0.043790117,0.10226693,0.41420543,-0.03628117,-0.5603048,-0.38498238,0.23697075
AREG,-0.7893092,-0.26034352,-0.33398905,-0.5313387,-1.010459,0.14272462,0.45297724,0.92005056,0.06660515,-0.14778027,0.29621884,0.6317078,-0.08173169,1.5635204,0.190639,-0.26609018,-0.08607375,-0.042734757,-0.22883259,1.5666671,-0.16279891,-1.2037477,-0.6180427,0.5772793,-1.3418483,-0.2931897,-0.18947789,0.7480954,0.22225483,-0.1404915,0.031135343,-0.24600907,0.22327593,-0.1082668,0.03349683,-0.17342696,0.18236856,-0.3658777,0.89223886,0.3267496,0.31399748,0.27206728,0.10337709,0.4140062,-0.15898548,-0.34707552,-0.07068027,-0.12685657,0.52557987,-0.21902801,-1.1465288,-1.477009,0.20917216,-1.818436,-0.30523747,0.31878695,-0.08221171,-0.1129593,0.435323,0.5481739,-0.04317936,0.5578621,0.063167185,0.30921087
AREG_Expression,0.6432556,-1.1111885,2.165576,0.4128996,0.029331125,-0.57347095,-0.30268466,0.9956343,-1.0840354,-0.32008544,0.7003995,-0.30576992,-0.099277005,-0.00648424,0.22755699,0.36487356,-0.5460804,-0.36053815,-0.6508115,-0.81305736,0.027846996,-0.06272741,-0.8984867,1.2088329,0.28825027,-0.20390444,-1.2592319,0.12019054,-0.41056177,-0.13327426,-1.024944,0.55028045,-1.1904294,0.13934034,-1.6154968,-0.0640946,0.17117655,-0.29001403,0.15130186,-0.06129624,-0.31623688,0.7512754,0.079459995,0.7468333,0.4677006,0.88664883,-0.59568787,-0.61931413,0.41282377,1.4054695,-0.08722648,-0.19220263,-0.06382201,-0.528561,-0.46266252,0.74619675,0.42205396,-0.48392832,-0.21484934,0.052022707,-0.17574118,0.053464264,0.016255733,-0.43550837
MAPK1,0.64635104,0.10274679,0.09118152,0.20476608,-0.72423685,-1.3913614,-0.132409,0.917882,0.10797092,0.37722537,0.4971458,0.07410148,-0.30775896,0.19052732,-0.207963,-0.7937634,-0.3909771,0.05372107,0.05860779,0.050415564,0.5317384,0.5773891,-1.3638874,-0.13455124,0.95216084,-0.30327478,1.2264824,0.10831442,-0.025345232,-0.0017632602,1.2266264,0.24184166,-0.6319545,-0.25044832,-0.5424249,-0.057277385,-0.9414777,0.122494854,-0.7767939,0.6110986,0.0193838,0.15938269,-0.51849914,0.064675,0.37815404,0.6162877,-0.23419744,-0.93339634,0.3164751,-0.8925284,0.15465124,0.14762546,1.0052546,-0.7774797,0.1055098,-0.5557116,0.044122368,-0.6210141,-0.17952894,-0.12688822,0.94978034,-0.07053026,-0.22510472,-0.0042319554
MAPK1_Amplification,0.483312,0.23684755,-0.16848421,-1.190729,-0.8976839,0.31988117,0.11819232,-0.06472769,-1.4057963,0.5430735,0.19100285,-0.4404997,-0.6669223,0.5275928,-0.5395768,-0.33193922,0.0895717,0.38478085,-0.26336348,-0.44808662,0.045590572,0.24057962,0.21551038,-0.2770476,-0.5547326,-1.3099282,0.06109948,-0.32909593,-0.8582383,-0.09020614,0.41890222,-0.61454326,0.7344793,-0.07630674,0.0023174055,0.09179965,-1.6549002,2.043003,-0.5816648,-0.3674144,0.42242876,1.2817551,-0.063110024,0.05194214,-0.6312608,1.039649,0.21192218,-0.58404195,-0.29814994,0.24926467,-0.068870455,-0.042434122,-0.103204116,0.82890743,-0.101322606,0.026118936,1.0472181,0.060283266,-0.3899994,-0.03131081,-0.50352013,0.100262955,0.02224683,0.16144058
Wz4002,0.78487825,0.3188568,0.24384162,0.19527082,-0.1031811,0.036454327,-0.91538197,-1.6926444,0.23221517,0.50913495,1.3125135,0.2940446,-0.632185,0.24764507,-0.12060815,-0.114582196,0.3348479,0.17508532,-0.4263314,-1.1821625,0.01842484,0.39745623,-0.017656209,0.2026558,-0.2456399,0.89312005,-0.25467175,0.09653028,-1.1162515,0.25746435,-0.058827136,-0.058175184,0.06763308,1.2646806,0.3299725,-0.5370121,0.4513959,-0.47344288,-0.5654479,-0.9470796,0.5105915,-0.5033605,0.23168537,-0.122981384,-0.11402985,0.52275693,0.35350233,0.40003696,-0.4770987,-0.8850508,-0.28802708,0.63942415,-0.1772954,0.0069333296,-0.68702143,-0.7753303,-0.26165223,-0.23262139,0.05413729,0.038428783,0.0645817,0.053217255,-0.23225884,-0.12916727
KRAS_A146V,-0.0690902,-0.028532986,0.30479956,0.028335968,-0.17631128,-0.23182482,-0.36839905,0.06619839,-0.14642374,-0.16214697,0.5018074,0.44773138,0.07065453,-0.2831931,1.2337552,0.030483982,-0.6966136,-0.26443142,0.012334019,0.044577695,0.16393341,0.77139556,1.2658852,-1.8039135,0.2397855,0.48852885,0.1947898,-0.14285591,-0.14591306,-0.11762369,0.40958005,-0.67936695,0.44415668,0.0876582,0.71429646,-0.18513116,-0.30642655,-0.043846283,-0.101224765,0.21045873,0.38600108,0.25261816,0.18699479,0.096971,0.22030547,-0.046283476,0.71593755,0.44199112,-0.26787835,0.20356998,0.116610244,-0.50740856,0.48575687,-0.6238746,0.1781678,-0.06465232,0.41723874,0.026811622,0.544296,0.07097186,0.14211762,-0.021451412,0.07808953,0.061284453
Abemaciclib,-0.6018297,-0.2733563,0.91221845,1.3436388,-0.17270786,0.77275634,0.5054478,0.17228599,0.027619224,-1.1014006,0.6746013,-0.43214947,0.3002317,0.28050292,-0.1451907,0.009178468,0.042884048,-0.5484506,0.0134595595,0.32929647,0.0899028,-0.702434,-0.28052297,0.042516135,0.97907746,1.1284047,-0.61600715,0.4407302,0.06156723,-0.16132528,0.61622924,-0.72088075,0.048907265,0.42274547,-0.59034765,-0.7106069,0.66035175,-0.11028916,-0.7350087,-0.24274905,0.21590395,0.47050586,0.12439542,0.19457474,-1.4235724,-0.1077772,0.749696,0.39516717,0.14591208,-0.7680465,-0.12897958,0.6521683,0.17822464,-0.38069734,-0.55745786,0.29553697,-0.3019828,-0.3470346,0.9828479,-0.84080905,0.5151703,-0.53467476,-0.16430822,0.347498
KRAS_G12V,-0.20345286,-0.2849162,-0.34304905,-0.1295107,0.33911672,0.10746531,0.44258732,0.20968053,0.23916467,-0.043286096,-0.15028046,0.05311608,0.5453518,-0.36137822,-0.1854427,0.42079145,0.31888673,0.04116875,0.53914946,0.043077346,-0.2863377,-0.64593875,-0.48722026,-0.23706248,0.4503386,0.46081862,-0.090861864,0.19397418,-0.07245033,-0.31505674,0.08853752,-0.07387118,-0.21981066,-0.13967645,-0.58036584,-0.37833568,0.45142943,-0.40500888,-0.81122303,0.67000103,-0.24865597,0.8366819,-0.38830325,0.056843776,0.49538642,-0.3478199,-0.26689413,0.12334259,0.28029478,0.3592623,-1.4854481,0.07407352,0.56119466,-1.043842,0.43252215,0.31798422,0.17703906,1.6748455,0.66691774,-1.5225946,-0.43719316,-0.086035535,0.20206395,0.006421631
Palbociclib,-0.016207451,0.41481388,0.2047195,0.49727005,-0.5664627,0.09388843,0.2542128,0.37598875,0.18479191,-0.49758056,-0.27298552,-0.07392216,-0.523274,0.34167507,-0.53768927,0.24160664,0.122818604,-1.2742227,-0.5738279,0.42392266,-0.51663923,-0.27471152,0.14397597,-0.35160357,-0.43614504,0.5047842,0.852258,-0.5301008,0.2014778,-0.7546518,0.36320123,-0.5705846,-0.12736626,0.5408691,-0.5708919,-0.7376131,-0.039784234,-0.35238507,0.1150226,-0.09955987,-1.1359406,0.4055272,-0.012773876,-0.0008303702,-0.2694991,0.10057312,-0.12560284,0.3822226,0.098394364,0.16529185,-0.04266607,-0.42174163,-0.5225332,1.2694348,0.21560189,0.1949718,-0.19391625,0.19227058,0.36631757,-1.0627307,0.3434811,-0.17479946,-0.13571425,-0.8140532
MET_Exon 14 Skipping Mutation,0.38809833,0.6155726,0.12696749,0.06675237,0.3316737,-0.75453824,0.37729025,0.015699916,-0.15507449,-0.77395463,-0.12892267,-0.28437182,-2.0839818,0.88145673,-0.09871915,-0.40867105,0.7297383,0.40927896,-0.34088615,-0.34796682,0.47399408,0.21121304,-0.21906424,-0.4339971,-0.20677346,0.6155532,-1.1029321,0.5820494,-0.3548096,-0.0807009,-0.8397023,0.5085316,0.5836385,-0.3781558,0.5798105,0.23181464,-0.28615555,0.19236824,0.8664415,0.33710763,-0.43816456,-0.5732839,-0.26957056,-1.3534541,-0.2223067,0.7682489,0.73421615,-0.1545642,-0.39935184,0.7607529,-0.42032468,0.23472704,-0.20878543,-0.2325705,0.15899743,-1.07652,-0.49053255,0.004792057,0.56406814,0.13915026,0.63279736,0.3162059,-0.54511404,-0.24502248
Patritumab,-0.029114861,0.35630867,0.16194786,0.1127109,-0.05355128,-0.3150446,0.09009664,0.3191529,-0.10320379,0.8536636,0.0774849,0.27142683,-0.09257322,0.22678952,0.5020604,0.11897969,-0.6000484,-0.6814253,-0.006260062,-0.0915503,-0.20589817,-0.19682118,0.24242912,-0.19972314,0.24063928,0.50201285,-0.18654284,-0.4357587,0.32511842,-0.051696435,0.21066415,0.46078905,-0.51026225,-0.07411507,-0.32440844,-0.02416368,-0.038615268,0.014700075,-0.12077759,-0.28266227,0.060013153,-0.33295655,-0.22748427,0.20106813,-0.115194336,0.23956515,-0.052307628,-0.71483153,0.04769139,0.18964139,0.307091,2.038766,0.0597363,0.027998982,-0.106995486,0.24336609,-0.1484178,0.22469914,-0.107842565,-0.3897744,-0.5138866,-0.09662193,-0.5756242,-0.2626386
WEE1,0.033750538,0.17836753,0.20453854,-0.15562008,-0.19652042,-0.035622686,-1.1662331,0.32525846,0.6784561,-0.1979162,0.4463915,-0.15706961,0.08365144,-0.06761948,0.91442084,-0.34117573,0.0029357162,0.18514231,-0.32942745,-0.063167185,-1.0672096,-0.0144699095,-0.08773111,1.2483308,0.38923723,-0.817929,0.16932832,0.18988456,-0.0770476,0.58795375,-0.117488235,0.41271627,0.23469174,-0.45395613,-0.22011824,-0.094146214,0.01681118,-0.4396517,-0.93057644,0.2685318,-0.4356845,0.3449288,0.12762399,-0.333762,-1.4736739,1.7124168,-0.118181966,-0.24045633,-0.6276566,-1.690411,0.062434547,-0.01282605,-0.26855418,-0.11742925,0.12790889,0.3348682,-0.3215866,-0.04208907,-0.14739428,0.3349654,-0.9553913,0.6245694,1.686195,0.16168797
WEE1_RS3910384,-0.48288545,0.84292394,0.80341995,0.1826331,0.091730714,0.19977802,0.067915775,1.6057196,0.53008735,0.21910748,-0.36716142,-0.03538426,1.2301085,0.6255048,0.64666367,-1.2543662,0.037108447,-0.40369344,-0.061755024,-0.31956276,0.2822568,2.144051,1.4864566,1.1463162,-1.1036685,1.0345147,0.5757814,-0.8292396,0.16191004,-0.109445415,-1.039145,0.18170515,0.148141,-0.7240936,0.91264087,-0.19057551,-0.9826767,-0.5184008,0.6860143,0.9982152,-0.64022726,-1.6548215,0.65691,-0.13743633,-0.72654265,-0.62633187,-0.17487343,0.3351244,1.1109003,-0.07585292,0.07622579,1.9318585,0.44916916,-0.07234014,-1.2911998,-0.5016784,-0.31701902,-0.37537962,-0.31442156,0.6129067,0.55030084,0.66513884,-0.08576375,-0.31269035
Platinum Compound,0.13157739,0.04414672,0.40896732,0.21697554,-0.10826188,-0.24566899,-0.17138577,-0.23708053,0.42528263,0.29868284,0.13161789,0.28096813,-0.25188795,-0.14076221,-0.21191174,0.42930686,-0.34181425,-0.06926455,-0.13903308,-1.1564009,-0.7849976,0.08330503,0.13944124,-0.2623969,-0.23212837,-0.09622322,0.073107444,1.5412064,-0.44463766,-0.4046915,-0.2094089,0.13424414,-0.22356983,-0.7593921,-0.33648044,0.50023526,-1.2667376,-0.62270457,-0.11043381,0.49900222,0.041380264,-0.4713988,-0.09500348,0.282913,-0.3317981,-0.59798014,0.30419847,-0.36643383,-0.14394338,-0.42686805,0.69212586,-0.3348823,-1.3794128,-0.01781595,-0.08351574,-0.19768606,-0.20996162,-0.56292707,-0.060975317,-0.22369336,0.11621633,-0.24753599,-0.40134025,0.02946322
PDCD4,1.155929,-1.1353127,-0.6630555,-1.2777508,0.034340683,-1.2052181,-0.7729179,-0.6976589,0.20432696,0.40506867,-0.19665344,-0.094477795,0.00850544,0.73672396,1.2986485,0.21133593,0.2652277,0.076234765,0.33629474,0.03621174,0.085610256,-0.46445733,-0.018499503,0.7339208,0.8806568,0.17466624,-1.1234301,-1.3957282,0.14216171,0.04877525,0.12381599,-0.2809871,-0.5732762,0.53586274,0.07812672,0.36655656,-0.095299415,0.05765844,-0.56191933,0.31093445,0.43371934,-0.30197945,-1.005879,0.14595628,-0.37378445,-0.15854214,0.13677418,-0.07394347,0.27385718,-0.49380973,-0.4276549,0.09913699,-0.41191378,-0.8636905,-1.4124135,-1.0222702,0.33001348,0.20299202,-0.7587348,0.30093718,1.2299253,-0.043902073,-0.6302298,0.70940864
PDCD4_EXPRESSION,-0.049959455,0.12074105,-0.18681307,1.2175888,-0.22160144,0.27476138,-0.93969864,-0.19382288,-0.8282917,0.10556863,0.7223269,-0.09421631,0.69782203,-0.5710424,0.05222772,0.55584115,0.21984358,-0.75692385,-0.039743744,-0.23431377,-0.4130925,-0.24475227,1.088198,0.20201036,-0.5583923,-0.28267446,-0.06688283,0.22864394,0.8215698,1.6492846,-0.23640181,-0.35207486,-0.20858581,0.47928753,0.68399465,1.1460282,-0.47327095,0.33218738,0.12073481,0.3760181,-0.7307819,-1.0078375,-0.45259115,0.19789435,-0.39684233,0.40013057,-0.44591516,0.14612152,0.10435345,0.8990678,0.2886156,-0.20296331,0.053230926,-0.9128067,0.30879197,-0.59392756,0.047286417,-0.35200825,-0.49517423,0.5791178,0.0819388,0.12112777,-0.42665613,0.371975
TYMS,0.15606962,0.11995145,-0.2513188,0.30526105,-0.22433923,0.2440411,0.25275627,0.23475724,0.61303145,0.12481724,0.603498,0.5557765,-0.30163035,0.011924331,0.10669741,-0.11467284,-0.43765137,0.25140846,-0.1254913,0.13444245,-0.4892607,0.65699464,-0.2989992,-0.3705273,0.7568535,0.0799755,-0.79262567,0.036787868,-0.11548672,0.4832402,-0.15591455,-0.51429147,-0.07347725,0.085569106,0.25537995,0.45140108,0.14783782,0.7419253,-0.19419694,0.5263592,0.13613276,0.10735978,-1.0252292,0.19921117,-0.011865003,0.05818752,-0.1779995,0.0013417201,-0.4391211,-0.14853372,-0.37829816,-0.26459578,-0.27432004,0.18357413,-0.25239238,0.4375564,-0.19487214,-0.4627296,0.44604465,-0.45804232,0.31719765,0.74974924,-0.0008020159,-0.34769952
TYMS_Overexpression,0.51448244,-0.16483897,-0.3279083,-0.47036013,0.12919518,0.028575255,0.40664688,0.70601267,0.29749206,-0.03366841,0.22106786,-0.62551975,-0.025313012,-0.1639228,-0.0682044,-0.023662686,-0.26699445,0.44486704,0.45354712,-0.1721156,-0.092080556,0.1772573,0.11506508,-0.047055278,-0.15259379,-0.4635175,-0.10040028,-0.18693796,-0.00849597,0.27031302,0.04407537,0.0043387013,0.1583672,-0.077854514,0.033640523,0.12514304,0.23115472,0.19488356,0.15955594,0.082484715,0.007342875,0.31779823,-0.4034055,0.059348796,-0.27394632,-0.33231875,0.08910466,-0.0003075889,-0.43829796,-0.09946358,-0.3545783,-0.38782692,0.20423979,0.06383093,0.106657565,0.014528858,-0.0570838,-0.15579276,0.15518714,-0.12354776,-0.08673603,-0.52890146,-0.23474342,0.56968236
PBK,-0.026461367,-0.44417733,0.23064423,0.7406343,0.21397708,-0.015454432,-0.03229068,0.44079137,-0.8709729,0.13583411,-0.48054314,-1.4232535,0.06179885,0.037747685,0.053926915,-0.18037468,-0.36300287,0.578778,-0.36840105,0.59136206,0.24448232,-0.32223973,0.34215406,-0.78326744,1.0898076,-0.40646458,0.045346472,1.3714167,-0.25623468,-0.22347967,0.3331324,-0.012547471,-0.0794261,0.899178,-0.17098618,0.24400693,-0.74365014,-2.0171757,0.6254168,0.020571183,-0.016662315,0.59212303,0.84259737,-0.0898695,0.28821927,0.0642382,0.52408963,-1.4783227,-0.5152034,0.3510029,0.3702636,0.0060906676,-0.22234263,-0.38331094,0.06406127,0.32126108,0.22765033,0.2692044,-0.73733866,-0.12088929,-0.26828748,-0.11123148,0.12835886,0.122985326
PBK_OVEREXPRESSION,-0.43451738,0.24866782,-0.30277434,-0.12302014,-0.120690815,-1.1705036,-0.38166338,0.00025141647,0.25716022,-0.117461205,0.04377687,-0.3759505,-0.45621452,-0.3037092,0.028241772,-0.17872001,0.18173134,-0.30671868,-0.09258914,-0.5426953,-0.899528,-0.49716666,0.062218584,0.8510197,0.5335997,-0.13454884,0.49278137,1.4043403,-1.2471222,-0.12739334,-0.11794013,-0.42732227,-0.38956815,-0.5799318,0.08479043,0.33317095,-0.71265554,0.76061475,-0.19160263,0.57210296,-0.2577067,0.1281314,-0.11781276,0.57539356,-0.30380344,-0.7948754,0.21860863,-0.5257382,-0.14852384,0.1655649,0.1112066,0.70904297,-0.17489727,-0.054930374,-0.18032122,0.39594847,0.012021364,-0.009892423,-0.29212174,-0.09052626,-0.22232272,-0.667684,-0.18084233,-0.8079325
SMARCA4,0.13301928,-0.30540717,-0.3244197,0.2297694,0.9576181,0.20698436,0.07521178,-1.0213987,0.5364923,0.012614578,0.35384893,-0.07514422,0.9276215,0.14386334,0.16533284,-0.30514055,-0.5665418,-0.2656012,-0.13703573,0.9792446,-0.050770316,0.11197922,-0.9335525,-0.18985432,-0.13790227,-0.010171686,0.26465508,0.25592017,-0.23234224,0.050144207,-0.10964731,-1.0766813,-1.4250677,-0.17512003,0.03116702,-0.53166926,0.50461805,0.7227006,-0.4242436,-0.65911317,0.1927287,-0.26667175,-0.48655546,-0.18705809,0.3380813,-0.14374375,-0.6260488,-0.27143717,-0.31500405,-0.45401153,0.22012211,0.013487179,-0.10760268,0.6548695,-2.0160089,0.5851528,0.1534801,0.16819471,0.94108796,1.4609988,-0.044078942,-1.7830406,-0.1992499,0.4857568
SMARCA4_Underexpression,1.0854136,-0.6902953,-0.5653148,0.12555973,-0.5053932,0.21810976,-1.5768842,0.19738452,-0.0074931355,0.02184859,-0.18436478,0.6368573,-0.10502855,0.21805461,-0.26529616,-0.06791761,-0.42379487,-0.09717313,1.2668881,-0.028239455,0.08995777,-0.3661834,0.3241109,0.5952988,-0.51775056,0.03109901,0.03919066,-0.23135538,-0.7901533,0.52292776,0.0105036665,-0.14952743,-0.51798594,0.75876915,-0.16771802,0.024734773,-0.7718193,0.37219834,0.8301371,0.7094674,1.1512656,0.62969184,-0.448325,0.40390772,-0.31679636,0.7245637,-0.21912897,1.2814165,0.4174498,0.703503,-0.14927904,-0.15861699,-0.19035362,-0.076954134,-0.50186455,-2.3288896,-0.31427634,0.26552644,-0.7780155,-0.6365987,0.09350019,-0.31812486,-0.6235238,0.062043555
Luminespib,0.44702917,0.33963102,0.32283896,-0.44454506,0.17459176,0.7270632,0.5038042,0.21505551,-0.36382824,-0.06377338,-0.26588458,0.9098323,-0.76211315,0.651085,-0.13515502,-0.0206358,-0.121904805,0.087826446,-0.20170954,0.12245081,-0.26792842,-0.35462326,0.69025564,1.0603471,-0.36982545,0.8837785,0.35744897,-0.97038573,-0.022823654,0.29175684,-0.26702496,-0.13142109,-0.081940696,-0.3778324,-0.15878348,0.22887672,-1.4543719,0.1126227,1.790182,-0.13596383,0.6609119,0.3002826,0.93498415,0.25908503,0.023027437,0.96897215,-0.2023599,1.3961183,-0.60038316,0.26351732,-1.1871893,0.14280239,0.07712411,0.62201226,-0.3471591,-0.5869657,-0.13515808,0.87764156,0.69279444,0.08258897,0.5344946,-0.5650307,0.13787681,0.42011023
Ceritinib,-0.2975275,-0.8957532,0.25862342,0.36086237,0.23783532,0.3877919,0.1422628,0.52521735,-0.4484187,-1.1198909,0.6935328,0.23010662,-0.39671668,-0.44873944,0.9384683,-0.17970389,1.1525627,-0.32071304,-0.17294335,-0.36632124,-0.08825042,0.76992506,0.5215217,0.05174334,0.6089415,0.12841523,-0.19207104,0.49513298,0.45779786,0.6189141,-0.34075665,-0.2463477,0.6988075,-0.08966899,0.24795839,0.018949747,-0.041775852,-1.0288047,0.78336114,-0.41663048,1.3238041,0.2975444,-0.9612603,-0.09883965,0.43425947,-2.1113632,0.4776274,-0.20795308,0.7772533,-1.6054379,-0.879327,-0.14445212,-0.37964985,-0.2383742,0.57664603,-0.23706359,0.07687066,-1.6300532,-0.27421573,-1.0040715,-0.9310904,1.1029109,0.053849634,-0.24161226
Lorlatinib,-0.7910905,0.1642414,0.586559,1.1185638,0.18336454,0.27703303,-0.7326856,-0.24716567,0.673086,0.019573368,-0.058578968,0.87135607,0.3977495,-0.2961547,-0.44079533,1.136121,1.7995332,1.5008047,-0.0891077,0.36928648,-0.21261622,0.042257115,-0.33918393,0.6056581,0.17711422,-0.20542605,-0.44354877,0.3253429,-0.048826605,0.44857827,0.8715284,-0.12832923,-0.38945028,1.0764151,-0.4096236,-0.0073406245,-0.3347808,-0.61684984,0.06928416,-0.9263147,-0.13453647,1.0263299,-0.34391353,-0.09302901,-0.63999116,-0.30662578,0.8840723,1.1596719,-0.5343964,0.058202,0.91915053,-1.2643832,-0.2016179,-0.07126229,0.38738015,-0.47999054,1.4178379,0.021046033,-0.25512326,0.99129397,0.40065134,-0.7316368,0.0012042276,0.39446163
EML4::ALK_Fusion AND ALK L1198F AND ALK C1156Y,-0.066363685,0.24241951,0.3249038,0.4974703,-0.48849836,0.2610835,0.9720081,0.5144394,-0.065988444,0.65542597,-0.44669127,-1.5756669,-0.45309055,-0.6816211,0.38047457,0.41187274,0.7480648,0.22830912,-0.5349155,0.23023507,0.15267605,-0.11018003,0.74013215,0.060154557,-0.041127954,-0.5014021,-0.23857674,0.78006214,0.26334226,0.015647596,0.91295356,0.23885372,0.32760283,0.34657922,-0.3425824,0.5879931,0.2650427,-0.35571557,-0.14415257,0.9047669,0.21962465,-0.7560085,-0.13471596,-0.21727479,0.04548812,-0.041231208,-0.530638,-1.110216,-0.012677431,-0.20754723,-0.7728991,0.4239194,0.23382312,-0.06463079,-0.3488988,-0.3629914,0.48552853,0.63477266,0.14043196,0.3129384,0.2442945,0.6693926,0.22149809,0.51413226
AURKA,0.5961453,0.15684153,0.14611539,-1.036358,1.5593549,0.5257126,0.4257353,-0.60309523,-0.6503068,-0.27958325,0.30207545,0.29616705,-0.11429326,0.09493425,-0.2864045,-0.56899285,0.4211346,0.9110754,-0.11816599,-0.49404356,-0.8763066,-0.040204268,0.7500463,-0.5643905,-0.22103086,-0.11789222,0.055004854,0.4753368,0.015340859,0.14198977,-0.3373467,0.32387593,0.20729257,0.09210383,0.042110592,-0.35012347,0.1482439,0.73131806,0.12010772,-0.74413157,-0.23336367,-0.102268085,0.7098571,0.08911189,0.67203116,-0.013222297,-0.0065826476,-0.5953518,0.40404373,-0.7374828,0.052724034,0.26437908,-0.31950232,-1.0536937,-0.2302756,-0.016917855,0.3497501,0.2682142,-0.66402066,0.36061537,0.08676847,1.0835648,-0.10961486,-0.06896553
AURKA_Overexpression,0.35192704,-0.32763946,0.004020357,-0.12258496,0.31543946,1.2979686,0.6710128,0.10473422,0.24973468,-0.826832,-0.08317523,0.014568711,-0.5321214,0.01413238,0.3805449,0.16629885,0.14158946,0.2380501,0.24186766,-0.6134557,-0.5960553,0.033914197,-0.009302615,-0.07062546,-0.51994395,1.0255982,1.4010928,-0.062147893,1.0208278,-0.6856018,0.30076945,-0.36827263,-0.9916563,0.6523005,-0.7810685,0.15309203,-0.36757356,-0.2177208,0.06081173,-0.79084927,0.07609807,0.083580524,0.36557162,0.16630569,-1.0064378,0.3766896,-0.82862025,-0.30144504,0.1290929,-0.06319371,-1.120768,-0.10175289,-0.32412368,-0.6085915,0.082378946,-0.07621076,-0.0848296,0.8226562,0.5481455,-0.3583774,0.76859444,-0.14623922,-0.03849971,-0.3776172
BIRC5,0.9526,-0.6993433,0.06791105,0.4076239,0.45079058,-0.17118122,1.585013,0.25253853,-0.1898124,-0.08425924,0.39216492,-0.008094321,0.20707808,0.7736762,0.1483999,-0.016027192,-0.04451798,0.2135813,-0.24057299,-0.3611976,0.039105214,0.21200748,0.45455667,-0.9073836,-0.742853,-0.58574766,0.12897357,-0.9164838,0.34894818,0.087030984,-0.30115095,-0.25452465,0.2640204,0.0081487615,-0.3663254,-0.2292611,-0.37444478,0.13551845,0.47330037,-0.23654719,0.53302157,-0.21002243,-0.4710566,-0.033580523,-0.2303694,0.46778518,-1.3474145,0.18413168,0.5456085,0.16564141,0.9060728,-0.5631356,-0.73593944,0.5064131,0.24548838,0.337147,1.394775,-0.44776544,-0.16196184,-1.0172802,-0.030049697,-0.07264494,0.07249729,0.6092365
BIRC5_NUCLEAR EXPRESSION,0.77609247,-0.43249667,-0.14595056,-1.6191313,0.275404,0.21784349,-1.083412,1.475389,0.21158434,-0.69764155,-0.84931767,-0.47880334,-1.2367114,0.10613095,0.14418134,1.256495,0.25193307,0.4506072,0.44202796,-0.9458412,0.033381958,1.1523912,-0.019407278,-0.3454417,0.08211769,0.32583112,-0.3297837,-0.15903881,0.6031464,-0.0717674,-0.16113955,-0.20571883,-0.5084825,0.1408664,-0.2367354,-0.9480403,0.21647437,-0.418457,0.41677266,0.12920393,-0.42888135,0.25512818,0.19272085,0.45715576,-0.3018583,0.37367222,0.02341663,-0.2928495,0.28343433,0.79139996,0.11214925,-1.15773,-0.008421262,0.36584362,0.9605939,1.0731055,0.11629829,0.26017606,0.45516977,0.07489931,0.12960942,0.1699808,-1.0103431,-1.9847633
Taxane Compound,0.11155031,-0.079951905,0.20789,0.12899637,-0.15607765,-0.39120245,0.87611973,-0.06542796,0.31592277,-0.26676354,0.45694682,-0.054515455,-0.20138502,0.3739167,-0.09183511,-0.12785085,0.072657034,0.457672,0.18159586,0.4669769,-0.5285154,-0.035082415,-0.317254,-0.14150478,0.15853414,0.061395492,-0.12213187,-0.47101802,-1.8615321,0.6907619,0.24882643,-0.11184319,-0.38039893,-0.0877668,0.1265461,0.14830142,0.18042257,-0.040575437,0.19756281,0.5881458,-0.21682923,-0.18435304,-0.0670552,-0.23214404,0.11101518,0.4223809,-0.4098621,-0.5563293,-0.18125102,0.3712475,0.18823563,-0.73634535,-0.25014642,-0.16472508,0.34486717,-0.47849777,0.021897234,0.19866002,1.9235601,1.0912893,-0.43898118,-1.039286,-0.50415087,-0.5364444
Afatinib,0.61797863,0.8745045,-0.962723,0.8564981,-0.7677862,-1.5002066,0.095733054,0.058999196,-0.20230092,0.012963459,-1.0788302,0.261801,1.8425102,-2.0766184,-0.5286833,0.35174295,-0.36386082,0.012098733,-0.11009088,0.7388409,1.5533749,1.1305623,0.4866021,-0.69095427,1.1457238,1.1647934,-1.6227673,0.5953042,-0.6843409,0.018455885,-0.38187975,0.32522434,-0.2753166,-0.17591129,0.42067605,0.3935285,1.131662,-0.6602534,-1.0679586,-1.1354276,0.03427652,-1.045221,-0.5174531,0.13899796,0.17775509,0.8624843,0.71753204,-0.7145773,0.23184437,-0.97964036,-0.6517606,-0.040954243,0.4726927,0.7149851,-0.38990098,0.4256659,-0.29961693,-0.19497685,0.5037404,1.5599091,-0.23467293,-0.53442484,-0.28089577,0.02108061
EGFR_Exon 18 Overexpression,-0.074057154,0.8588795,-0.022776442,0.11458649,-0.050756264,-0.053342823,-0.010264246,-0.03504699,0.7221541,-0.45216465,-0.122350775,0.60602355,-0.54941434,0.0058972323,0.13414954,-0.14786595,0.53542435,-0.44024184,-0.29558873,-0.28748035,-0.85660547,-0.8348636,-0.13518171,-0.44183752,0.9258254,0.0041206065,0.016255368,-0.17956667,-0.28261498,-0.25403416,0.12382895,-0.05359506,-0.23568277,-0.65705496,0.057771485,-0.4032452,-0.32079273,1.4489413,-0.35739133,0.46166986,0.5569724,0.38973,0.048050493,0.48500633,-1.3923857,-0.0015229642,-0.23170824,-0.6812159,0.4499634,0.59751976,0.079952985,-0.9105408,1.0146729,-0.11803102,-1.0403125,0.34119284,-0.061892323,-0.45299682,0.25047463,0.26350528,-0.11111481,0.9789829,0.91315925,-0.6350662
Bevacizumab,-0.030166762,-0.84290415,-0.88170147,0.3164043,-0.6312056,-1.1624713,1.4864188,0.13644609,-0.47557992,-0.2987031,0.33641967,0.53997135,-0.51673406,0.114645675,-0.58865774,-0.1182334,0.53116775,0.112694874,-0.21997194,0.3958155,-1.3704603,-0.037862733,-0.0020334842,-0.11847331,1.727197,-0.56073207,-0.3025513,-0.12814057,-0.80215085,-0.20821555,-0.56635773,-0.24605606,-2.0745902,0.007451123,0.30529404,0.36953497,0.08337995,-0.62061745,-0.66772467,0.31038314,-0.23040064,0.3139583,-0.5508303,-0.72329766,0.002371041,0.18116009,-0.51079595,0.61904615,0.44384193,-0.61674076,0.73694503,0.60412776,0.80908066,-0.20148088,-1.4808522,-0.6703805,-0.100579076,-0.2525019,0.020149227,0.034430876,-0.028043231,-1.1463776,1.3180549,0.5608696
TYMS_Amplification,0.3714411,-0.6678206,-0.1308696,0.2354413,-0.5238494,-0.26855096,0.20287915,-0.110526845,-0.01095178,0.019010466,0.23640983,0.0371598,-0.002667813,0.21286586,-0.9211009,0.12800875,-0.09826168,0.61353844,-0.97602195,0.066805795,0.37481165,0.06395728,-0.5221294,-0.36619502,-0.82323664,0.6348383,-0.43919796,-0.62912273,0.36510125,-0.12568401,-0.17128317,-0.029476264,-0.2891782,-0.27042502,-0.108437724,-0.123231694,0.014552267,0.21596564,0.2459883,0.45822367,-1.9770441,0.067999765,0.035724685,0.26344672,0.06785706,-0.15801005,0.6325628,-0.026901014,0.16216323,0.46225762,0.29543754,-0.5765132,-0.07621865,0.26705027,-0.08385815,0.012651211,-0.22629051,0.16581655,0.49403816,-0.009576747,-0.11542209,0.16006441,-0.15731145,0.18441394
IGF1R,-0.5686557,-0.14391267,-0.728003,0.06717322,0.006709037,-0.12415958,0.024509935,-0.9897633,-0.4893605,-0.48550034,-0.06409979,-0.25748596,0.21874557,0.12679721,0.039612178,0.10057709,-0.16811003,0.013842482,0.4466704,-1.2494897,-0.98171437,-0.024165373,-0.028470417,0.2625486,-0.51102155,0.11767452,0.06846403,0.010875924,0.25461495,-0.06187193,0.014298319,-0.016556416,-0.15452714,0.40818915,-0.18031085,-0.064954706,0.108152464,0.1379199,-0.4620598,0.24935716,-0.016607815,-0.009041177,-0.03853189,-0.2306667,0.26402748,-0.040437948,-0.015401183,0.19010755,-0.22031535,-0.06642784,0.4131148,-0.19507864,1.2096885,-0.16617133,0.37532875,0.119870774,-0.013517309,0.10764165,0.10677427,0.037637252,0.5544865,-0.07157227,-0.23648962,-0.17378153
IGF1R_EXPRESSION,-0.80570245,-0.1024265,-0.08179022,-0.64931226,-0.91679764,-0.046147726,0.32273346,-0.25724867,0.010616805,0.1828026,0.72231233,-0.29404387,0.041161463,1.271555,-0.24441811,-0.02679895,-0.48166928,-0.095200755,-0.21389985,-0.11691314,-0.1889323,0.49267086,0.0763837,1.4189408,-0.5203745,0.32794484,0.09714672,-0.048576277,0.5746125,-0.23614563,-0.00797044,0.59506553,-0.21174686,-0.029646378,0.039599758,0.16730699,0.25319353,-0.010640655,-0.084210016,0.35720795,0.1649308,-0.23878586,-0.4986367,0.29760113,-0.12788317,-0.54909956,1.6545776,0.011948781,0.039581124,-0.14117788,-0.18023607,-0.27960262,0.45232052,0.19287235,0.12249673,0.4502914,0.22295928,0.62043965,0.04721831,0.6327977,0.07099709,-0.31214488,-0.28581893,-0.2483609
TYMS_Underexpression,0.2971796,0.17872903,-0.020209117,-0.70817524,-0.48435956,0.03375541,-0.91224784,0.53245735,-0.23029345,-0.14433624,0.3868254,-0.422784,-0.5050693,0.098738134,-1.2161617,-0.03637322,0.69172716,-0.8117738,-0.45468068,1.5484977,-1.3115441,0.01818351,0.43901786,-1.0753862,-0.06922358,-1.1788349,-0.8710189,-0.15691637,0.45421523,-0.8855721,-0.96349657,-0.7647133,0.024430562,0.3888828,-0.18866463,0.42974207,0.0936441,-0.40716547,0.12500805,0.5774301,0.7111032,-1.4212976,-0.22586729,-0.21818972,-0.1287699,-0.2505482,-0.6618957,0.33747518,-0.57043964,0.7680749,-0.6760039,1.2856755,-0.04589673,-1.7225409,0.05466641,0.07817996,0.41078398,-0.3378655,0.59069127,0.26486486,0.47198355,-0.5032068,0.15992947,0.22001402
EGFR_Y1092 PHOSPHORYLATION,0.29298452,-0.07899893,0.41569614,-0.3280297,-0.29036167,0.7908836,-1.1889431,0.10960552,-0.19954726,0.41739988,-0.48784238,0.19019134,-0.34431946,0.26231596,-0.074010864,0.32320297,0.47911108,-0.5578368,0.38718084,0.09195261,-0.6872418,0.38367978,-0.08223084,-0.5448462,0.36522964,-0.30610332,-0.5753039,0.36776695,0.5690768,-0.09554323,-1.8179069,-0.5281814,-0.2668643,0.34527025,-0.11473168,0.6672769,-0.5314979,0.8219673,-0.02888642,0.059543952,-0.121506326,-0.31905106,0.72248846,-0.46223456,-0.23187459,-0.23653172,-0.04013793,0.13080074,-0.53378177,0.27413207,-0.09226103,1.1431752,0.2823811,-0.15507306,0.19196647,0.32487163,0.8648702,0.29098898,0.3801196,0.6611235,-0.13579722,0.16757387,-0.38737276,0.57247984
JAK1,-0.0063455557,-0.7907052,-0.4127739,0.41903353,-0.25071892,0.4952621,-0.53945154,0.113662995,0.3259651,0.4142079,-0.3998523,0.4378697,-0.5668354,0.10094284,0.5702906,-0.3953386,0.03178001,-0.80628026,-0.46803954,0.32535568,-0.41553977,-0.2470634,-0.5185834,-0.45714337,1.037871,0.11199828,1.1746134,-0.00722724,0.079482585,1.029255,0.9486779,0.7317519,0.19441044,-0.44882825,-0.047500767,0.47606993,0.2390137,-0.5373426,-0.26363763,0.2688016,-0.11677854,-0.2124869,0.42197058,0.20966016,0.1834938,-0.35159415,0.1632264,-0.8024825,0.96185213,-0.036204737,-1.0828942,-0.052947734,0.14213991,0.094554804,-1.3857826,-0.7468661,0.34948173,0.077604964,-0.027162733,0.97823733,-0.26297352,-1.0337975,-0.25535604,0.65490353
